%YAML:1.0
---
detector: !!opencv-object-detector-hog
   winSize: [ 144, 144 ]
   blockSize: [ 16, 16 ]
   blockStride: [ 8, 8 ]
   cellSize: [ 8, 8 ]
   nbins: 9
   derivAperture: 1
   winSigma: 4.
   histogramNormType: 0
   L2HysThreshold: 2.0000000000000001e-01
   gammaCorrection: 1
   nlevels: 64
   signedGradient: 0
   SVMDetector: [ -1.10343262e-03, 2.45471339e-04, 3.08803585e-03,
       3.86351603e-03, 2.56570359e-03, 4.77344176e-04, 5.93858946e-04,
       1.94301433e-03, -6.81886915e-04, -1.56822754e-03, -3.18947627e-04,
       3.34185490e-04, 1.40126422e-03, 1.13481912e-03, 1.75139925e-03,
       6.90818008e-04, -9.47205081e-06, -1.67553895e-03, -2.00506952e-03,
       1.17328670e-03, 3.21222306e-03, 2.49918178e-03, 1.81374769e-03,
       4.20241442e-04, 7.16992770e-04, 1.10232527e-03, -2.27754237e-03,
       -1.41571125e-03, 8.10534926e-04, 1.96181168e-03, 1.26674480e-04,
       1.54345739e-03, 1.86421245e-03, 1.08936278e-03, -8.49497213e-04,
       -2.09666602e-03, -1.31239765e-03, -1.27429375e-03,
       -2.01121485e-03, -5.96574740e-04, 7.60952360e-04, 3.12332390e-03,
       6.00432802e-04, -1.22564263e-03, -9.64949082e-04, -8.20364046e-04,
       -3.31315235e-03, 8.66752671e-05, 2.02053273e-03, 2.32256739e-03,
       2.75332085e-03, 1.87843456e-03, 2.53439121e-05, 1.16564985e-03,
       6.56584918e-04, 1.80763204e-03, 2.52880249e-03, -1.34333066e-04,
       1.41135335e-03, 1.56680611e-03, 8.36156833e-04, 1.57582363e-05,
       -1.03257282e-03, -2.72890000e-04, -5.52100653e-04, 3.47252993e-04,
       3.00629908e-05, -2.41466868e-03, 2.66278046e-03, 4.46112175e-03,
       4.86838137e-04, -9.52311035e-04, -1.50973373e-03, -2.96087703e-03,
       3.92593094e-04, 2.26185541e-03, 1.27095461e-03, 1.66765775e-03,
       -4.93529136e-04, 4.75038512e-04, 4.78790113e-04, -3.15711345e-03,
       -3.18387384e-03, -7.03862315e-05, 1.52760581e-03, -1.31988591e-05,
       5.30268415e-04, 3.26213398e-04, 2.30378681e-03, -6.26334077e-05,
       -1.33811717e-03, -1.52431580e-03, -9.24458553e-04,
       -4.51548804e-05, -3.43012245e-04, 2.16105022e-03, 3.77871841e-03,
       7.33484339e-04, 2.52754835e-04, -2.83470983e-03, -2.06696079e-03,
       5.68036921e-04, 1.31754216e-03, 2.01548007e-03, 1.42593856e-03,
       1.34656904e-03, 2.14701588e-03, 1.86380686e-03, -3.23423813e-03,
       -3.00139398e-03, 1.04035356e-03, 2.95495824e-03, 1.41770870e-03,
       6.42565778e-04, 6.09896029e-04, 1.82311423e-03, 2.58328917e-04,
       1.44148339e-03, 7.22741024e-05, 4.44336358e-04, 1.24999729e-03,
       6.25831657e-04, -1.06392172e-03, -1.40186312e-04, 5.32467966e-04,
       1.65394961e-03, -2.14914442e-03, -2.22068885e-03, 2.04539881e-03,
       3.48717044e-03, 2.63608829e-03, 1.73820229e-03, 2.89852777e-03,
       3.13400477e-03, 1.89440895e-03, 5.58582600e-04, 2.17820774e-03,
       4.23690071e-03, 2.27821642e-03, 1.15926261e-04, -5.55935898e-04,
       3.70313530e-04, 8.27427779e-04, 9.30795446e-04, 2.46197893e-03,
       1.34032965e-03, 1.30464544e-03, 5.90242329e-04, 1.52752921e-03,
       -1.39046169e-03, 3.77831311e-04, 7.11572124e-04, 1.82283856e-03,
       3.13092693e-04, 9.59827332e-04, 1.97884673e-03, 3.45416222e-04,
       1.05426449e-03, 2.19601585e-04, 1.08360406e-03, 8.11514736e-04,
       1.69337890e-03, 1.53494382e-03, 3.78538109e-03, 1.55052682e-03,
       1.44871563e-04, 1.88238613e-04, 1.40854478e-04, 3.98777047e-04,
       -2.19882510e-04, 3.47243331e-04, -1.41311891e-03, 1.61468855e-03,
       -2.35343119e-04, 6.36135577e-04, -2.25948333e-03, -1.31731690e-03,
       9.29998234e-04, -1.83180120e-04, 2.44769326e-04, -1.33781217e-03,
       -2.94456459e-05, 2.85922637e-04, -6.93355687e-05, 2.15425761e-03,
       9.20852413e-04, 2.48218537e-04, 6.86963263e-04, 5.47479838e-04,
       -3.07207869e-04, 1.37085066e-04, 8.52233497e-04, 6.02713961e-04,
       4.48123639e-04, 1.87430036e-04, -1.94333133e-03, -7.26172657e-05,
       3.11086507e-04, -9.02489701e-04, 5.48306794e-04, 7.31873733e-04,
       2.61312700e-04, -2.05761753e-03, -3.60388192e-03, 6.30595721e-04,
       7.36935763e-04, 8.85648129e-04, 1.94476603e-03, 2.94386270e-03,
       3.07173352e-03, 2.45170225e-03, -1.80608605e-03, -3.30885407e-03,
       -1.89326180e-03, 9.72653506e-05, 7.65380915e-04, -1.07557164e-03,
       -8.05749267e-04, 7.00545264e-04, 6.96516188e-04, -1.68534543e-03,
       -1.15384790e-03, -1.87756750e-03, -8.64671078e-04,
       -9.95608629e-04, -1.54744391e-03, 5.22614748e-04, 3.89510789e-03,
       6.90996589e-04, 2.74845050e-04, 1.77933311e-03, -1.19023689e-03,
       -1.13302667e-03, -5.94103709e-04, 2.13569932e-04, 1.81333825e-03,
       2.72669620e-03, 1.14782561e-05, -2.45571462e-03, -2.46691122e-03,
       -2.46407604e-03, -1.61745970e-03, -9.71821544e-04,
       -1.23897265e-03, 4.28525545e-03, 7.18242954e-03, -1.22230718e-04,
       -2.40302645e-03, -1.42803486e-03, -3.89794377e-03,
       -3.78550845e-03, -3.08991247e-03, -1.72094814e-03, 4.62027965e-03,
       5.47202025e-03, -1.15155362e-05, -7.59521441e-04, 6.88655127e-04,
       -1.96509878e-03, -2.02012295e-03, -1.10790506e-03, 9.05602181e-04,
       5.04015153e-03, 3.29939066e-03, -1.57300616e-03, -1.92106201e-03,
       -2.37113470e-03, -3.56061221e-03, -2.53328960e-03,
       -8.17749649e-04, -3.72332125e-03, 6.05070917e-03, 7.40700634e-03,
       -1.26455724e-03, -2.01462442e-03, -1.31688500e-03,
       -2.94516957e-03, -3.54450080e-03, -5.22530172e-03,
       -1.98626146e-03, 4.27054148e-03, 2.16419832e-03, -2.64635193e-03,
       -4.40989807e-03, -3.35789262e-03, -4.72790329e-03,
       -5.99871203e-03, -5.31932851e-03, 3.75995715e-03, 6.10780437e-03,
       2.17018067e-03, -5.90628653e-04, -2.89168186e-03, -2.07948382e-03,
       -6.64680847e-04, 4.91744315e-04, 2.03951073e-04, 1.91164040e-03,
       7.61737116e-04, -1.19242189e-03, -1.43113465e-03, -1.26439228e-03,
       1.00732374e-03, 3.17684375e-03, 3.39851226e-03, 1.45751378e-03,
       4.24568425e-04, 3.11437366e-03, 2.96758866e-04, -2.46592006e-03,
       -4.89932997e-03, -3.23047652e-03, -3.03212553e-03,
       -3.85849178e-03, -2.62616319e-03, -2.56039365e-03,
       -2.01754179e-03, -1.05252257e-03, -1.75765809e-03,
       -3.98428738e-03, -1.23649009e-03, 5.51669917e-04, -5.00708644e-04,
       -3.02654970e-03, -3.61565122e-04, -5.66599076e-04,
       -1.65097532e-04, -3.80263053e-04, -3.35553894e-04, 1.00569322e-03,
       2.46777083e-03, 8.79605883e-04, -2.27898383e-03, -1.28077378e-03,
       -2.57045613e-03, -1.92786788e-03, -2.75090570e-04,
       -6.72184455e-04, 2.37702229e-03, 4.78984555e-03, 2.74230773e-03,
       -2.65211356e-03, -4.82104113e-03, -3.25694610e-03,
       -5.26746386e-04, -7.86352495e-04, -1.97851355e-03, 7.07897590e-04,
       1.74622098e-03, 3.40098020e-04, -4.17579431e-03, -4.28064074e-03,
       -1.71258871e-03, -3.94658535e-04, 7.17167859e-05, -2.84372340e-03,
       -4.47304425e-04, 2.71884724e-03, 5.92744851e-04, -4.28911252e-03,
       3.41007975e-03, -9.25850240e-04, -2.87380349e-03, -2.64378439e-04,
       -2.77219480e-03, 4.29823813e-05, 1.42177474e-03, 7.04133301e-04,
       1.77112152e-03, 3.38720367e-03, -1.67290960e-03, -3.17526958e-03,
       -4.14291688e-04, -1.66889932e-03, -1.66365891e-04, 1.31396903e-03,
       1.43659767e-03, 2.43058987e-03, -6.02056447e-04, 3.73071991e-04,
       -5.48144337e-04, 5.71535900e-04, -3.89004429e-03, -1.63807778e-03,
       2.20342074e-03, 1.48385181e-03, -6.85845967e-04, 5.92508644e-04,
       -1.44639902e-03, -2.18465505e-03, -1.87812885e-03,
       -3.36901471e-03, 4.60464566e-04, 2.62221997e-03, 2.75583728e-03,
       2.79331813e-03, 8.23631635e-05, -3.14272288e-03, -2.33378704e-03,
       3.67007160e-04, -2.43975106e-03, 4.96244407e-04, 1.56522624e-03,
       2.14003539e-03, 2.56077293e-03, -5.67259151e-04, -2.87933834e-03,
       -2.44297949e-03, -3.76121840e-04, -1.22989842e-03, 1.91363192e-03,
       2.70250859e-03, 3.50126997e-03, 4.42102179e-03, 1.61373755e-04,
       -2.71155778e-03, -2.21008551e-03, -1.04990543e-03,
       -2.78210733e-03, 2.10415601e-04, 1.55514863e-03, 1.58116501e-03,
       2.50646868e-03, 8.55306862e-04, -1.79616932e-03, -3.10533542e-05,
       -1.43794867e-03, 1.09621127e-04, 1.00234429e-04, 2.85921851e-03,
       3.59352375e-03, 4.60955827e-03, -2.59565189e-03, -2.94835842e-03,
       -1.85424148e-03, 1.31588674e-03, -1.30170991e-03, 3.11255339e-04,
       1.72250392e-03, 2.62629823e-03, 2.16575828e-03, 3.28170863e-04,
       1.34140482e-05, -7.76883622e-04, 1.97939994e-03, -8.59631284e-04,
       -4.46821687e-05, 2.16986239e-03, 2.58327229e-03, 1.82274997e-03,
       -1.13767630e-03, -2.44359090e-03, 8.17871827e-04, 4.54789930e-04,
       -8.45573843e-04, 5.12221362e-04, 2.45592417e-03, 2.43650074e-03,
       1.92555622e-03, -1.92894111e-03, -1.55510881e-03, 6.56241609e-04,
       2.20115064e-03, 1.63883890e-03, 1.59715558e-03, 2.16192892e-03,
       2.41892855e-03, 2.15933844e-03, -1.21119467e-03, -1.15296466e-03,
       6.27955655e-04, 1.78907218e-03, -2.71700392e-03, 6.89227658e-04,
       2.55931704e-03, 2.61100731e-03, 2.81766552e-04, -1.09825004e-03,
       -2.83840904e-03, -1.06671697e-03, 7.64450233e-04, -3.63713549e-03,
       -9.87619744e-04, 2.26558209e-03, 5.72298979e-03, 1.56161247e-03,
       -1.55317772e-03, -1.90444873e-03, -1.42974360e-03, 1.59946806e-03,
       1.81421361e-04, 1.64683827e-03, 3.76184215e-03, 3.91924800e-03,
       1.62580912e-03, 8.85343296e-04, -1.59371784e-03, -1.90348062e-03,
       4.88939695e-04, -1.50538865e-03, 1.42274483e-03, 5.39463619e-03,
       5.55149093e-03, 3.90414731e-03, 1.23545376e-03, -3.90057176e-05,
       -1.82117091e-03, 4.26704180e-04, -2.11159140e-03, -8.15223728e-04,
       1.96086313e-03, 5.82574122e-03, 1.88356300e-03, -5.24146599e-04,
       -1.89221709e-03, -2.41397112e-03, -7.57780275e-04,
       -3.47034587e-03, -9.26856417e-04, 7.54372799e-04, 2.06597219e-03,
       1.81445503e-03, 6.37619291e-04, -1.07975584e-03, -3.84420576e-03,
       -2.63976865e-04, -1.81302533e-03, 1.74846279e-03, 6.83890656e-03,
       8.60782526e-03, 3.05519952e-03, -4.75858746e-04, -1.91005529e-03,
       -3.15248547e-03, 4.30814434e-05, 8.69138225e-04, 1.97634590e-03,
       3.46578960e-03, 2.80376151e-03, 4.11551900e-06, -1.62310561e-03,
       -2.60928739e-03, -1.89840654e-03, -1.74028112e-03,
       -3.07317916e-03, 3.83835984e-04, 2.44442141e-03, 3.74641223e-03,
       1.71576906e-03, -1.80862739e-03, -8.91353120e-04, 3.92395959e-05,
       -1.60076903e-04, -2.88065826e-03, 9.81970341e-04, 2.82516284e-03,
       3.19312140e-03, -5.53719201e-06, -1.22127240e-03, -3.14603793e-03,
       -1.35265745e-03, -3.78283148e-04, 5.94168622e-03, 3.54475598e-03,
       5.23700099e-03, 3.99542926e-03, 1.53570203e-03, -2.81019346e-03,
       -2.46025482e-03, -1.80585997e-03, -1.45965873e-03,
       -5.58368920e-04, 2.65670870e-03, 3.37490137e-03, 5.04204631e-03,
       7.20921031e-04, -3.26533656e-04, 5.85249392e-04, 1.73431297e-03,
       1.46543758e-03, -1.05726824e-03, 1.49364385e-03, 3.93764290e-04,
       7.61392934e-04, -1.37657439e-03, 1.39462249e-03, 1.69469859e-04,
       1.45938364e-03, 1.38095580e-03, 7.42088712e-04, 1.24616339e-03,
       -1.28741388e-03, -1.27610273e-03, -2.08714907e-03,
       -2.79176072e-03, -3.52292135e-03, -1.22273792e-04,
       -1.12929505e-04, 3.10768228e-04, 2.42542988e-03, 2.53245793e-03,
       3.40383872e-03, 4.06982581e-04, -1.43618288e-03, -3.51986033e-03,
       4.20232012e-04, 2.25141854e-03, 1.83610583e-03, 2.26736395e-03,
       9.80040641e-04, 3.16558289e-04, -2.41785939e-03, -1.57482561e-03,
       -6.04093773e-04, 1.51356577e-03, 7.27405364e-04, -5.91540942e-04,
       1.29296712e-03, 7.09039334e-04, 2.31923317e-04, -2.18835776e-03,
       -1.08315551e-03, -2.42462338e-04, 1.10732974e-03, -1.08775951e-03,
       5.13784064e-04, 2.79696169e-03, 2.00749794e-03, 1.34902145e-03,
       -2.15255539e-04, -1.38675433e-03, -5.83913294e-04,
       -1.92167121e-04, 3.20549589e-03, 1.85368140e-03, 2.92035565e-03,
       1.38217059e-03, 8.19689230e-05, -1.00231601e-03, -1.77641818e-03,
       -4.79552255e-04, -1.45529641e-03, -3.52686533e-04, 1.56066683e-03,
       3.21799284e-03, 1.42386660e-03, 2.12799967e-03, 3.97182041e-04,
       -6.07060560e-04, 3.21292973e-05, 1.83631375e-03, -1.49557833e-03,
       4.18306183e-04, 1.43913005e-03, 7.89459446e-04, -7.13782909e-04,
       -9.21442814e-04, 6.69897592e-04, -2.07231869e-03, -1.13137159e-03,
       -1.61776925e-03, 8.53402191e-04, 2.53240718e-03, 3.28819011e-03,
       -6.38912141e-04, -4.62866534e-04, -1.42181234e-03, 4.18322830e-04,
       -8.48882773e-04, -2.51842709e-03, 1.89093559e-03, 2.47617904e-03,
       6.75562711e-04, -9.84692597e-04, -1.06215465e-03, 5.22281160e-04,
       -3.50639946e-03, -2.69809272e-03, -2.36871652e-03, 2.67830747e-03,
       2.52377568e-03, 1.00533233e-03, 1.25051665e-04, 4.62582073e-04,
       1.27163786e-03, -9.98043455e-04, -2.12771492e-03, -1.48601166e-03,
       -3.72518494e-04, 5.78173960e-04, 1.90115569e-03, 2.05618810e-04,
       2.06271512e-03, 9.24911990e-04, -1.03364221e-03, -3.03259148e-04,
       -8.54277750e-04, 5.66227944e-04, -1.49967056e-03, -3.80892598e-04,
       2.31940462e-03, 4.32762504e-03, 2.71023158e-03, -1.46231754e-03,
       -4.01976332e-03, -1.51750597e-03, -1.38924341e-03, 2.20082744e-04,
       1.56055985e-03, 2.26781750e-03, 2.51528132e-03, 3.09053599e-03,
       -3.53110285e-04, -6.35253149e-04, 6.16200792e-04, 5.48131880e-04,
       -4.37962008e-04, 1.51860993e-04, 2.50911713e-03, 3.87571519e-03,
       7.48550519e-04, -1.02259987e-03, 2.38818582e-03, 9.84675484e-04,
       -3.04526911e-04, -1.54096750e-03, 1.79775539e-04, 1.92448462e-03,
       2.74755713e-03, 1.03734806e-03, 1.76400854e-03, 4.55986243e-03,
       1.58985460e-03, -3.43508529e-03, -3.00487806e-03, -2.15600897e-03,
       -1.39508746e-03, -1.02917477e-03, 2.64115585e-03, 3.66074848e-04,
       7.95288244e-04, 9.98367206e-04, 2.01875169e-04, 1.00897416e-03,
       1.42367207e-03, 1.91943182e-04, 1.87442778e-03, -8.47574964e-04,
       1.76665944e-03, 3.67554929e-03, 1.36771519e-03, -3.60764354e-03,
       -3.01851821e-03, -3.28731327e-03, -2.08328990e-03,
       -9.35543503e-04, 5.09825419e-04, 3.32830637e-03, 2.77001201e-03,
       1.14767114e-03, -2.40348466e-03, -2.33868626e-03, -1.60205620e-03,
       -1.73727691e-03, -4.94164531e-04, 2.26537362e-04, 3.48501489e-04,
       1.45756919e-03, 2.30274512e-04, -3.76527011e-03, -3.83107946e-03,
       -2.27310113e-03, -2.30260985e-03, 5.16484433e-04, -1.19102071e-03,
       3.29508702e-03, 5.44764567e-03, 3.50725162e-03, -1.41534861e-03,
       -2.57535931e-03, -8.89667892e-04, -1.28282572e-03,
       -1.49020023e-04, -3.07753071e-04, 1.98679836e-03, 6.89659826e-03,
       3.23525839e-03, -6.57361350e-04, -2.04352452e-03, -2.96631060e-03,
       -2.03125062e-03, -1.06810580e-03, -1.36209579e-04,
       -1.34404108e-03, 6.98413467e-04, 1.29247003e-03, -2.38251267e-03,
       -4.25941497e-03, -2.50902073e-03, -1.38260808e-03, 2.46356311e-03,
       6.69447822e-04, 1.19281537e-03, 4.46017226e-03, 2.15781783e-03,
       -1.41149806e-03, -3.99079314e-03, -2.33391905e-03,
       -1.42133597e-03, 1.43744901e-03, 9.05018387e-05, 1.20533642e-03,
       7.23520294e-03, 3.73187242e-03, -9.65380052e-04, -2.76264711e-03,
       -4.52287216e-03, -2.37107533e-03, 5.20173984e-04, -1.05192000e-03,
       2.96216062e-03, 5.56232780e-03, 2.07899907e-03, -3.57209775e-03,
       -4.30133892e-03, -4.37040022e-03, -4.00743634e-03,
       -1.53219720e-04, 3.65976919e-03, 3.66466958e-03, 5.61234215e-03,
       1.89848233e-03, -1.67838158e-03, -1.74378010e-03, -1.60830491e-03,
       -7.93615065e-04, 2.31305044e-03, 5.53847756e-04, 4.26584901e-03,
       6.75559277e-03, -1.05851295e-03, -4.39025369e-03, -2.69271270e-03,
       -2.71677249e-03, -1.55209959e-03, -1.38772395e-03,
       -8.02177528e-04, 1.64195895e-03, 3.02882027e-03, -1.14570104e-03,
       -3.11430963e-03, -2.20448617e-03, -2.49013538e-03,
       -2.01314222e-03, -7.75621593e-05, -3.40574631e-03,
       -1.13062980e-03, 4.60478506e-04, -2.69783544e-03, -4.56745736e-03,
       -3.80679220e-03, -3.50271841e-03, -2.72043399e-03,
       -2.78907176e-03, 1.13649119e-03, 8.78829230e-03, 1.03838453e-02,
       5.99807303e-04, 9.20784834e-04, -1.99652277e-03, -1.09842792e-03,
       -8.18297209e-04, -1.10730657e-03, -1.50019443e-03, 3.22757266e-03,
       2.53817183e-03, -1.16536603e-03, -1.62744499e-03, -3.24990880e-03,
       -3.86581779e-03, -4.17486997e-03, -3.26511823e-03,
       -2.44731340e-03, -2.09361967e-03, 1.10828516e-03, -2.06769630e-03,
       -1.88525126e-03, -3.85420420e-03, -3.69874784e-03,
       -3.24711530e-03, -1.63032487e-03, -2.54971487e-03,
       -5.04621677e-03, -2.74583814e-03, -3.03025264e-03,
       -3.73458886e-03, -6.01823814e-03, -5.98300016e-03,
       -4.30019107e-03, -3.32915899e-03, 1.70110166e-03, 2.90305098e-03,
       1.69492944e-03, -6.68196997e-04, 3.99567827e-04, -2.62364885e-03,
       -1.96393160e-03, -3.08881328e-03, -1.97662375e-04,
       -8.71653552e-04, -9.73812857e-05, 6.76155847e-04, 1.01329999e-04,
       5.21915092e-04, 5.57012063e-05, 4.91380785e-03, 2.52336287e-03,
       1.23794365e-04, 9.58365563e-04, -3.19688581e-03, -3.02870991e-03,
       -2.89450516e-03, -1.43076340e-03, -4.68676491e-03,
       -4.94778389e-03, -2.83217244e-03, -7.17442250e-04, 4.88292193e-04,
       3.96408810e-04, -3.94918397e-03, -4.65928530e-03, -2.04223627e-03,
       -4.36107768e-03, -3.39167006e-03, -3.44699458e-03, 4.97256871e-04,
       -2.18834821e-03, -2.84753798e-04, 2.17386201e-04, -8.48816882e-04,
       -1.95302418e-03, -1.29036338e-03, 1.03332812e-03, -1.74168978e-04,
       -1.81813096e-03, 6.14426041e-04, 2.52483715e-03, 2.66983383e-03,
       -2.53189442e-04, -1.55483896e-03, -1.65853370e-03, 3.13768093e-03,
       2.03444925e-03, -8.66320188e-05, 1.73786655e-03, 1.95523817e-03,
       -3.73771321e-03, -4.87002498e-03, -4.90929373e-03,
       -4.40528989e-03, -4.94510308e-03, -4.04218445e-03, 1.33787724e-03,
       4.29890072e-03, 3.29804863e-03, -2.03977362e-03, -4.76591242e-03,
       -4.85530635e-03, -4.65692254e-03, -7.71018327e-04,
       -1.56131573e-03, 2.71478994e-03, 1.08089170e-03, 1.10613450e-03,
       1.26726436e-03, -9.29128553e-04, -3.80870630e-03, -2.89957435e-03,
       2.05403706e-03, 9.20262828e-04, -3.45591863e-04, 2.58713355e-03,
       -1.74735440e-03, -1.51881226e-03, -2.95626698e-03,
       -3.13068880e-03, -1.26045197e-03, 1.31311128e-03, 3.21761239e-03,
       2.36420566e-03, 4.46345983e-03, 7.39862269e-04, -2.95841973e-03,
       -4.74576885e-03, -6.88279979e-03, -5.70786372e-03,
       -1.85141654e-03, 1.15818577e-04, 3.27137415e-03, 3.63069936e-03,
       -1.91265007e-03, -4.17225622e-03, -4.98909969e-03,
       -6.49255095e-03, -5.53684169e-03, -8.76410166e-04, 1.27301237e-03,
       7.67489756e-03, 2.63219024e-03, -1.23156828e-03, -1.97522482e-03,
       -2.93693529e-03, -4.34035622e-03, -2.13372381e-03,
       -2.86830473e-03, -1.54804104e-04, 2.23071664e-03, 3.59637570e-03,
       -1.91372339e-04, 5.57565909e-05, -2.16170028e-03, 1.87799291e-04,
       -1.46089192e-03, 4.82792413e-04, 4.65029152e-04, 3.55101726e-03,
       5.06374240e-03, -2.16770452e-03, -4.21032123e-03, -3.54529591e-03,
       -6.08693529e-03, -4.59936494e-03, -1.99927646e-03,
       -9.14461620e-04, 6.20454876e-03, 5.82048995e-03, -1.00192055e-03,
       -2.78004352e-03, -3.45070963e-03, -2.47789989e-03,
       -2.38936557e-03, 1.87836564e-03, 1.24993315e-03, 4.95025516e-03,
       9.24654654e-04, -1.06140238e-03, -1.83015261e-04, -1.22351898e-03,
       6.83216786e-05, -9.55629977e-04, 1.50383182e-03, 6.19718106e-04,
       2.11503427e-03, 1.56312628e-04, -2.01523281e-03, -3.65685148e-04,
       9.79616671e-05, 6.70482987e-04, -6.70387002e-04, 1.65637152e-03,
       2.14064168e-03, 3.65345366e-03, 2.26270687e-03, -7.73532200e-04,
       -2.57434393e-03, -3.76449036e-03, -2.24066642e-03,
       -2.09689629e-03, 1.34898044e-04, -5.81455883e-04, 2.32182932e-03,
       1.46852888e-03, -1.50638004e-03, -2.91937357e-03, -3.21174623e-03,
       -1.31793204e-03, -3.03933909e-03, -3.97083582e-04,
       -5.08191188e-05, 2.20634881e-03, 2.61767360e-04, -2.32103700e-03,
       -5.97682141e-04, 7.96603563e-04, 1.26033952e-03, 1.06836820e-03,
       2.88345618e-03, 2.65694107e-03, 3.46455257e-03, -1.16329291e-03,
       -1.78035302e-03, -1.30518281e-03, 6.58236328e-04, -1.13716815e-04,
       2.79906718e-03, 4.43027075e-03, 3.82975442e-03, 1.80957234e-03,
       1.55715004e-03, 8.91757645e-06, -1.06023916e-03, -9.77001269e-04,
       -1.63605378e-03, -6.30248629e-04, -1.10564870e-03,
       -1.07100187e-03, 1.52340520e-03, 2.25913501e-03, 1.72465236e-03,
       1.66660675e-03, 4.49499494e-04, -1.26689649e-03, 1.03933737e-03,
       -5.31849837e-05, -7.54572859e-04, 7.44845369e-04, -1.34274992e-03,
       -1.67174952e-03, -2.82872398e-03, -6.05780748e-04,
       -3.97157186e-04, 2.34484160e-03, 4.37452504e-03, 6.07653148e-03,
       2.42180959e-03, -1.60601945e-03, -2.72419211e-03, -3.56082269e-03,
       -8.55458959e-04, 2.42382099e-04, 9.08538059e-04, 1.40058238e-03,
       2.16331193e-03, 4.08807682e-04, -3.28999013e-04, -7.70792190e-04,
       6.24653883e-04, 3.70398338e-04, -1.74156774e-03, 2.47462536e-03,
       2.14139465e-03, 3.11801583e-03, 7.25848950e-04, -3.65208507e-05,
       -1.78131857e-03, -1.72042253e-03, -2.43814313e-03,
       -2.34526908e-03, -3.67647182e-04, 2.59964378e-03, 6.71727676e-03,
       3.25615262e-03, -1.49298832e-03, -1.26646599e-03, -1.76546921e-03,
       -1.86444682e-04, 3.08944215e-03, 1.70027488e-03, 1.00420532e-03,
       4.17171599e-04, -1.71223583e-04, -3.41108511e-03, -1.20817602e-03,
       -7.35520618e-04, 9.62063379e-04, 1.65642425e-03, 1.37624948e-03,
       6.74612820e-04, 1.66665984e-03, -6.69515051e-04, 7.44846649e-04,
       1.45853439e-03, -3.67384433e-04, -1.96154043e-03, -3.71978589e-04,
       1.17174664e-03, 2.24194606e-03, 4.84065758e-03, 2.39930907e-03,
       -1.04126486e-03, 1.35117047e-03, 2.84182117e-03, 2.47525400e-03,
       2.71740183e-03, 2.27675238e-03, -1.86100428e-04, 9.48216766e-04,
       9.46134503e-04, -3.75387049e-03, -2.23863963e-03, 8.68237054e-04,
       2.03943253e-03, 1.01830612e-03, 8.15717387e-04, 1.76676549e-03,
       2.81606545e-03, -7.58172770e-04, -2.39269785e-03, -3.24279000e-03,
       5.06442622e-04, 2.45640404e-03, 2.84100743e-03, 7.92882056e-04,
       1.16238464e-03, 1.20735832e-03, -1.69528194e-03, -4.69225430e-04,
       8.80236970e-04, 4.31424845e-03, 5.40541671e-03, 6.32806402e-03,
       2.56737228e-03, 8.67282914e-04, 1.22916582e-03, 2.08255020e-03,
       -2.27454584e-03, -3.23966960e-03, -7.73678883e-04, 2.72242422e-03,
       2.35668593e-03, 5.20027243e-04, 7.16915762e-04, 2.47892109e-03,
       -1.48612412e-03, -1.28051281e-04, -2.08869111e-04,
       -1.25333294e-03, 2.58846558e-03, 3.56169045e-03, 1.43752922e-03,
       2.80470558e-04, -1.88241631e-03, -9.25171422e-04, -6.23820000e-04,
       3.67750647e-04, -1.50190157e-04, 1.55551743e-03, 3.91016994e-03,
       2.07081251e-03, 3.66268738e-04, -6.13605545e-04, -6.01041073e-04,
       -1.34817360e-03, -1.05319708e-03, -2.51011737e-03, 1.20133301e-03,
       2.26822426e-03, 5.33969665e-04, -4.97143337e-05, -1.39467733e-03,
       -9.38556157e-04, -8.79774627e-04, 2.40654888e-04, -1.67917274e-03,
       9.15393815e-04, 7.36135000e-04, -1.42960576e-04, -7.14289839e-04,
       -2.53109378e-03, -1.94859842e-03, -1.60517509e-03, 1.47393160e-03,
       5.31214289e-04, 1.55786081e-04, 3.04922648e-03, 3.27839167e-03,
       2.65732699e-04, -5.02614363e-04, -1.03375781e-03, 5.89441275e-04,
       2.19618625e-04, -1.20742677e-03, -1.32153824e-03, 2.31687701e-03,
       5.95915539e-04, -1.17636810e-03, 7.30738684e-04, 1.15343789e-03,
       -1.21197046e-03, 1.28462736e-03, 5.73874451e-04, 4.64414683e-04,
       1.24436629e-03, 9.20995895e-04, -1.09491672e-03, -1.59223378e-03,
       -1.63885544e-03, 1.62365311e-03, 8.55217106e-04, -8.77204235e-04,
       -1.29232078e-03, 1.03558460e-03, -3.56516015e-04, -1.55101460e-03,
       -2.47849330e-05, 4.71652660e-04, 2.72399001e-03, 9.82570462e-04,
       -1.29697123e-03, -1.40093744e-03, 3.46106332e-04, -2.80320557e-04,
       1.77128022e-05, 1.98042253e-03, 2.62512104e-03, 2.71695014e-03,
       -5.73412690e-05, -6.88746979e-04, 1.27906475e-04, 1.07562705e-03,
       1.65530609e-03, 1.18240016e-03, 3.18717561e-04, 1.65852089e-03,
       -5.70374687e-05, -5.10740269e-04, -9.65174579e-04,
       -2.75582797e-03, -1.07421738e-03, -3.14330426e-03,
       -2.48473813e-03, 3.66227963e-04, 1.27532729e-03, -2.52395606e-04,
       -1.47002714e-03, 1.04504114e-03, 2.15800968e-03, 1.80340663e-03,
       -1.49661244e-03, -1.66186749e-03, -1.72356970e-03, 4.09187815e-05,
       1.75955473e-03, 2.91524950e-04, 5.42414607e-04, 7.43847631e-04,
       -3.56152814e-05, 1.40689930e-03, 3.97939526e-04, -1.68825604e-03,
       5.61424589e-04, -3.05380381e-04, 1.91654963e-03, 3.66354221e-03,
       6.03164546e-04, -3.79552017e-03, -2.11864989e-03, -2.32694577e-03,
       -1.64648739e-03, 4.61493968e-04, 1.55849871e-03, -6.68867026e-04,
       1.30254438e-03, 6.45361666e-04, -7.22313940e-04, -8.90412892e-04,
       -1.97570119e-03, -2.50132033e-03, -4.50190884e-04,
       -4.47176222e-04, 3.39178136e-03, 3.47494078e-03, 1.75467494e-03,
       -4.06291289e-03, -2.68425653e-03, -2.22978392e-03,
       -3.10231489e-03, -2.67504045e-04, -6.92037807e-04, 1.33136462e-03,
       4.76794969e-03, 8.85187590e-04, -2.96335644e-03, -3.05477600e-03,
       -2.40760110e-03, -1.13474228e-03, 1.07674929e-03, -6.08239905e-04,
       2.15285877e-03, 5.61633939e-03, 2.49609444e-03, -2.03788280e-03,
       -3.96868680e-03, -4.41356702e-03, -2.46055960e-03,
       -1.42722437e-03, -1.85011572e-03, 2.05323333e-03, 3.81803932e-03,
       2.92269076e-04, -3.60758649e-03, -2.93903612e-03, -3.37327016e-03,
       -3.73614184e-03, -1.82449480e-03, -1.89782702e-03, 4.43276484e-03,
       4.49894369e-03, 7.47999147e-05, -5.84439235e-03, -3.71880853e-03,
       -6.96404651e-03, -6.98979199e-03, -3.72046093e-03, 1.16783136e-03,
       4.77116136e-03, 9.89991426e-03, 4.68927948e-03, -3.52834119e-04,
       -3.92506225e-03, -5.23954164e-03, -3.24765872e-03, 7.15770118e-04,
       -1.38487216e-04, 2.99888267e-03, 5.01096807e-03, -6.47429697e-05,
       -4.84564947e-03, -6.22564834e-03, -5.53151174e-03,
       -3.91498767e-03, -1.02081380e-04, 1.38514594e-03, 3.72542930e-03,
       4.47552186e-03, 1.14782655e-03, -1.47099711e-03, -3.58648342e-03,
       -6.65645953e-03, -6.70126965e-03, -1.58177386e-03,
       -7.70859304e-04, -1.51478290e-03, -2.36173230e-03,
       -2.59385118e-03, -5.95873222e-03, -8.18820111e-03,
       -7.29867676e-03, -7.19515095e-03, -2.84369127e-03, 4.09110170e-03,
       4.47945902e-03, 6.98346412e-03, 5.73892437e-04, 1.92768523e-03,
       -2.30602152e-03, -1.59835489e-03, -8.18691798e-04, 3.60439206e-03,
       2.83634244e-03, -1.53235719e-03, -8.74810910e-04, -3.94996908e-03,
       -1.18585804e-03, -3.51997907e-03, -3.09987017e-03,
       -2.92530167e-03, 1.00396853e-03, 1.59132655e-03, -9.22885549e-04,
       -1.60834880e-03, -2.13870034e-03, -3.63303372e-03,
       -7.29364902e-03, -4.55035409e-03, -4.10130341e-03, 6.85256789e-04,
       6.86658663e-04, -1.42014748e-03, -5.47475507e-03, -7.83963315e-03,
       -7.99302757e-03, -8.60254932e-03, -6.48503471e-03,
       -5.78555511e-03, -5.85268019e-04, 7.14929216e-03, 8.60654574e-04,
       1.88337592e-03, -2.46717641e-03, 4.54183109e-03, -3.29491706e-03,
       -3.60062299e-03, -2.12384551e-03, 4.71952930e-03, 2.85402406e-03,
       -2.63704034e-03, -2.30117841e-03, -5.46034751e-03,
       -3.89451976e-03, -6.66852714e-03, -4.55165235e-03,
       -2.01875437e-03, 1.87101157e-03, 3.48261790e-03, 7.55762623e-04,
       -2.45507108e-03, -8.21583252e-03, -3.28113325e-03,
       -7.17234751e-03, -6.21450273e-03, -5.15566720e-03, 1.65069092e-03,
       -4.18954529e-04, -2.83513055e-03, -2.35987431e-03,
       -8.20229854e-03, -5.49646700e-03, -8.79275706e-03,
       -7.13574653e-03, -3.54539277e-03, 6.88232656e-04, 4.27083438e-03,
       -1.51186110e-03, -3.11797089e-03, -4.09179786e-03,
       -2.19333521e-03, -5.64161781e-03, -3.44581902e-03,
       -1.48346531e-04, 3.65873426e-03, 7.93309603e-03, 1.03454175e-03,
       -3.25281103e-03, -5.89067489e-03, 3.33252014e-03, -6.26833504e-03,
       -3.04745161e-03, -2.17720680e-03, 6.00136258e-03, 2.31649101e-04,
       -3.78743908e-03, -4.15411452e-03, -5.82805881e-03,
       -3.03778006e-03, -6.54860586e-03, -5.00333169e-03,
       -1.40617741e-03, 9.26830166e-04, 2.07418669e-03, -5.95444813e-03,
       -6.73343241e-03, -7.29416125e-03, -1.36547023e-03,
       -8.20853375e-03, -4.79315128e-03, -4.26390953e-03, 1.85530190e-03,
       7.61035085e-03, 1.41417910e-03, -4.48483741e-03, -6.76934607e-03,
       -2.42354884e-03, -5.23913978e-03, -3.56435007e-03,
       -1.89094909e-03, 4.47899336e-03, 8.29563476e-03, 2.22823443e-03,
       -3.05605726e-03, -6.57672901e-03, 2.17905710e-03, -3.65648814e-03,
       3.67613835e-03, 1.48696394e-03, 7.44350115e-03, 1.95105642e-03,
       -4.99267690e-03, -5.92962792e-03, -7.17485370e-03,
       -3.91000975e-03, -7.16732023e-03, -4.19231318e-03,
       -4.12926218e-03, 9.93988244e-04, 2.51383195e-03, -2.43638060e-03,
       -5.99148357e-03, -7.98909366e-03, -6.30409503e-03,
       -5.46081364e-03, -4.16302541e-03, -3.42150801e-03, 7.36278889e-04,
       7.17195449e-03, 6.85863313e-04, -2.77737179e-03, -4.62867366e-03,
       -2.62508704e-03, -5.29302377e-03, -1.16041338e-04, 7.61420291e-04,
       6.60968944e-03, 6.45127147e-03, -1.85042911e-04, -1.91163435e-03,
       -3.38545209e-03, -1.35536073e-03, -3.53832426e-03, 2.33076862e-03,
       2.33976915e-03, 9.94305406e-03, 8.63055815e-04, -3.17154825e-03,
       -5.77242998e-03, -6.61752606e-03, -8.58769845e-03,
       -7.54269538e-03, -4.05957596e-03, -5.53268055e-03,
       -3.75705626e-04, -2.34205072e-04, -5.33485832e-03,
       -6.94974605e-03, -6.84937369e-03, -7.18776416e-03,
       -6.48155808e-03, -3.53459036e-03, -5.72302053e-03, 1.45871600e-03,
       5.17495163e-03, -3.34216817e-03, -4.45955619e-03, -3.74114281e-03,
       -3.64247733e-03, -3.45378905e-03, 1.30402751e-03, 4.19948716e-04,
       6.09925995e-03, 5.74469287e-03, -1.38116977e-03, -3.37173627e-03,
       -3.03721172e-03, 1.50135776e-03, 1.76640204e-03, 5.71162859e-03,
       2.98645091e-03, 5.96443238e-03, -1.72016490e-03, -6.55077025e-03,
       -6.30714791e-03, -6.29871106e-03, -7.82068167e-03,
       -4.89768013e-03, -3.05074709e-03, -5.00875711e-03,
       -1.00567646e-03, -1.64419238e-03, -5.69855748e-03,
       -6.07957365e-03, -6.09607715e-03, -2.98385671e-03,
       -2.75519816e-03, -9.99660697e-04, -4.11815196e-03,
       -2.80073984e-03, 4.14800690e-03, -1.65732694e-03, -3.08544631e-03,
       -2.46354216e-03, -5.06308745e-04, 2.48838740e-04, 3.64348688e-03,
       7.54681707e-04, 3.61238956e-03, 9.31374496e-04, -4.21524094e-03,
       -4.60541015e-03, -2.99964100e-03, 1.38443126e-03, 3.19210114e-04,
       1.57396484e-03, 2.12406041e-03, 3.56728979e-03, -4.18148050e-03,
       -5.29547548e-03, -6.32812828e-03, -4.42561833e-03,
       -2.21648649e-03, 4.33422421e-04, 2.45682895e-04, -2.28443183e-03,
       -3.24271456e-03, -7.47661712e-03, -7.58302119e-03,
       -6.47915853e-03, -4.35973797e-03, 1.86657382e-03, 2.24000169e-03,
       2.35150848e-03, 2.26902102e-05, -2.49053398e-03, 2.41038855e-03,
       5.35477942e-04, -1.06616702e-03, -1.41240994e-03, -9.92351561e-04,
       -1.10725826e-03, -6.77627220e-04, 5.08445723e-04, 4.13635420e-03,
       3.65538453e-03, 1.46332744e-03, 7.43762823e-04, -1.32374698e-04,
       -8.77338229e-04, 1.61769812e-03, -1.15960456e-05, -8.23790790e-04,
       1.15088769e-03, -5.10546053e-03, -3.46753071e-03, -8.95037956e-04,
       2.17252105e-04, -4.89247032e-04, 9.23606422e-05, -6.80655416e-04,
       -8.17852037e-04, -1.87321939e-03, -4.14329907e-03,
       -2.84861308e-03, -1.18886621e-03, 7.83382973e-04, -1.09377364e-03,
       2.21352233e-03, 7.38266448e-04, -3.38863092e-03, -3.18307476e-03,
       9.39252728e-04, 5.93111443e-04, 1.50859170e-03, -1.42747740e-04,
       -7.92928564e-04, 3.63965775e-03, 1.25060033e-03, 6.52139774e-04,
       1.31241139e-03, 1.65371457e-03, -2.71332683e-04, -2.68109754e-04,
       -9.37679200e-04, -1.12189620e-03, 9.16960940e-04, 1.68523344e-03,
       5.82929514e-03, 3.59397405e-03, -2.05575419e-03, -9.11121839e-04,
       -1.27968902e-03, -8.15575549e-05, 1.29430890e-04, 2.30443291e-03,
       -4.84400312e-04, -4.16279119e-03, -2.24176096e-03,
       -2.23879726e-03, -1.47476676e-03, 2.23814393e-04, 5.97266597e-04,
       1.87361613e-03, 2.85501662e-03, 8.31365833e-06, 1.12473627e-03,
       -1.75729766e-03, 9.20831633e-04, 4.44322010e-04, -1.30349514e-03,
       -1.18406308e-04, -5.02770359e-04, 9.34220036e-04, 1.02461246e-03,
       5.06983465e-03, 3.82807828e-03, -5.66176896e-04, 3.89953144e-04,
       -4.76345711e-04, 1.59291492e-03, 2.10109679e-03, 1.94498093e-03,
       4.91579587e-04, 2.16105464e-03, 1.34087156e-03, -1.31516042e-03,
       -1.80916127e-03, -1.40397064e-03, 8.11822480e-04, 3.89365014e-04,
       1.89062336e-03, 1.81707810e-03, 2.99365097e-03, -1.20201427e-03,
       -1.84030831e-03, -1.80015457e-03, -2.54457258e-03, 1.28947140e-04,
       3.15270154e-03, 4.30808822e-03, 2.23186915e-03, 1.19740062e-03,
       -2.65963026e-03, -3.45265784e-04, 1.00962678e-03, 5.86434617e-04,
       3.30629433e-03, 3.58554744e-03, 2.90651689e-03, 4.16098570e-04,
       2.03447090e-03, 9.68893059e-04, -1.23618229e-03, -8.16234853e-04,
       -1.39734813e-03, 1.44100701e-03, 1.48142583e-03, 7.61289382e-04,
       5.48172218e-04, 2.84684217e-03, 6.81227015e-04, -1.19269791e-03,
       -6.17046084e-04, -2.45205266e-03, 1.50336837e-03, 3.50043434e-03,
       6.84561580e-03, 3.38689284e-03, 2.00830190e-03, -7.38302653e-04,
       -1.49674562e-03, -5.44149021e-04, -1.30813580e-03, 1.25341478e-03,
       -4.55803762e-04, 8.02999362e-04, -8.22339905e-04, 1.36031199e-03,
       2.64107162e-04, -8.51015036e-04, -5.27683820e-04, -1.86597827e-04,
       -4.32496803e-04, 6.27745816e-04, -3.95068200e-04, -6.05387846e-04,
       -4.92379593e-04, -4.02141770e-04, 6.65125088e-04, 3.10718291e-03,
       2.53732759e-03, 1.19769457e-03, 8.62232351e-04, 1.16826646e-04,
       -4.99757356e-04, -2.04721838e-03, -7.36362126e-04,
       -6.05424168e-04, 1.52703506e-04, 1.10241247e-03, 1.13188056e-03,
       1.86604157e-03, -1.94943522e-03, -1.95258728e-03, -2.00731470e-03,
       -1.99074717e-03, 9.57022246e-04, 2.28379457e-03, 3.20784491e-03,
       2.73522746e-04, 3.81787773e-03, 4.29213018e-04, -2.72901758e-04,
       -3.51368217e-03, -1.13872450e-03, -3.37993028e-04, 3.34093627e-03,
       3.59834428e-03, 5.66973700e-04, 8.30130768e-04, 1.24744442e-03,
       -6.43767649e-04, -1.97661691e-03, -1.51005993e-03, 1.56766898e-03,
       2.20423238e-03, 4.35088325e-04, -1.49286375e-03, -1.14657951e-06,
       -1.06812199e-03, -9.20371967e-04, -4.33942856e-04,
       -2.99143518e-04, 5.26374613e-04, 1.25236204e-03, 2.00953870e-03,
       1.64667761e-03, 2.95755849e-03, -3.55210796e-04, -1.17904134e-03,
       -4.61377157e-03, -1.57296646e-03, 2.20123352e-03, 4.00770549e-03,
       2.73289857e-03, 8.28878779e-04, -1.18949691e-04, -3.94097343e-03,
       -4.45604790e-03, -2.14618002e-03, -1.90349331e-03, 6.01559586e-04,
       7.12576002e-05, -1.55093940e-03, -2.11030035e-03, -2.00626149e-04,
       -2.53734249e-03, -2.32811342e-03, -2.96739134e-04,
       -6.77910575e-05, -5.16671746e-04, -2.82879890e-04, 6.65254192e-05,
       8.26433010e-04, 5.39864530e-04, -3.62915196e-03, -3.56937852e-03,
       -2.17364682e-03, -8.43157759e-04, 1.43977173e-03, 1.85841543e-03,
       1.34082313e-03, -2.12397172e-05, 7.04695995e-04, -3.17516853e-03,
       -4.10406198e-03, -2.20883964e-03, -2.53384630e-03,
       -1.30335242e-03, 6.00626983e-04, 1.16338907e-03, 9.45037937e-06,
       1.85581285e-03, -3.83058726e-03, -4.37396765e-03, -4.54606721e-03,
       -4.53560939e-03, 3.41833290e-03, 1.42215588e-03, 1.56927062e-03,
       5.39786648e-04, 1.43364002e-03, -2.61519453e-03, -2.36062519e-03,
       -2.06650677e-03, 2.59902887e-03, 1.73211948e-03, 3.45315365e-03,
       4.08932101e-03, 2.64701038e-03, 8.63000692e-04, -3.76107916e-03,
       -4.33922093e-03, -4.43484401e-03, 9.97651950e-04, -2.03667325e-03,
       6.33694814e-04, -1.31659050e-04, -8.61272798e-04, 9.55788884e-04,
       -3.15086497e-03, -4.74461867e-03, -4.61088493e-03,
       -2.89132749e-03, -2.17642426e-03, -1.31237030e-03, 1.93665759e-03,
       1.51582924e-03, -1.31753227e-03, -3.85461398e-03, -6.74471725e-03,
       -4.22686618e-03, -2.37307861e-03, 2.09854901e-04, 3.50442715e-03,
       3.90423182e-03, 1.55446585e-03, 4.90161299e-04, -2.93570920e-03,
       -4.30131191e-03, -5.02822548e-03, -6.78719953e-04,
       -5.05888602e-04, 9.04141576e-04, 1.56930974e-03, 2.91997363e-04,
       -1.93815294e-03, -2.19524093e-03, -5.71312383e-03,
       -6.54873159e-03, -1.57781958e-03, -2.84020673e-03,
       -3.18032270e-03, 1.06858660e-03, 1.51568674e-03, -9.02825326e-04,
       -4.08337731e-03, -4.56402218e-03, -4.06866381e-03,
       -2.60662613e-03, -1.02590595e-03, -3.32853012e-03,
       -2.33466201e-03, -1.32086244e-03, -5.66160190e-04,
       -4.95962100e-03, -5.38971461e-03, -4.61554574e-03,
       -2.53218319e-03, 2.78313179e-03, 4.96555399e-03, 3.18961055e-03,
       8.81746295e-04, 1.28296192e-03, -2.17381795e-03, -5.34606585e-03,
       -4.95942542e-03, -9.81054654e-06, 1.86544191e-03, -1.08059263e-03,
       -3.45209450e-03, -4.76316176e-03, -4.49358113e-03,
       -7.15780584e-03, -6.32452685e-03, -6.29181834e-03,
       -9.42351879e-04, 1.72126456e-03, -1.37657323e-03, -2.53301603e-03,
       -1.11651362e-03, 3.46538058e-04, -4.56952862e-03, -4.98202024e-03,
       -3.76884663e-03, -3.08188121e-03, 1.34033256e-03, -1.74365682e-03,
       -4.81664995e-03, -7.59458542e-03, -3.23132239e-03,
       -8.23150855e-03, -7.08417175e-03, -6.03440171e-03,
       -3.58713069e-03, 6.37407554e-03, 3.45627405e-03, 1.43944588e-03,
       6.07952461e-05, -2.04396131e-03, -5.93148498e-03, -4.42330958e-03,
       -5.00227604e-03, 3.80374212e-03, 2.13063252e-03, 4.52018430e-04,
       -3.96406185e-03, -5.42397285e-03, -7.23581854e-03,
       -7.97615107e-03, -6.93801790e-03, -5.71818091e-03,
       -1.34417950e-03, 2.04390357e-03, -2.28677201e-03, -3.12013016e-03,
       -2.96395784e-03, 1.71102607e-03, -5.59215993e-03, -5.41284448e-03,
       -4.88907238e-03, 1.21556350e-03, 4.88547143e-04, -5.70758060e-03,
       -5.38383564e-03, -4.54145577e-03, -1.56132237e-03,
       -6.10515289e-03, -4.11900319e-03, -4.59090015e-03, 2.36159191e-03,
       4.84306831e-03, 2.98784929e-03, 1.41949167e-05, -4.48498596e-03,
       -4.04433487e-03, -5.93940821e-03, -5.16413804e-03,
       -4.13871557e-03, 8.52630707e-04, 1.40929443e-03, -2.17119604e-03,
       -1.19706395e-03, -5.70823532e-03, -4.62224847e-03,
       -6.10316778e-03, -5.35878493e-03, -4.29554004e-03, 1.49852145e-04,
       -1.82565476e-03, -6.43685926e-03, -5.02080936e-03,
       -5.45292720e-03, -3.69397248e-03, -5.49095543e-03,
       -4.78288764e-03, -2.81296251e-03, 5.62611327e-04, 2.00235494e-03,
       -1.18302845e-03, -3.17570777e-03, -5.16131753e-03,
       -2.90120998e-03, -6.96233613e-03, -3.32761859e-03,
       -6.24885317e-04, 1.87126291e-03, 3.10397521e-03, -1.84895156e-03,
       -2.32726778e-03, -4.41473210e-03, -2.84484494e-03,
       -5.77382371e-03, -3.68759246e-03, -1.92499394e-03, 2.83332542e-03,
       3.34325177e-03, -3.48046911e-03, -6.55639311e-03, -5.79989003e-03,
       -5.44631667e-03, -7.88822956e-03, -6.12926297e-03,
       -5.38929179e-03, 3.15531826e-04, 4.27247351e-03, 2.55045394e-04,
       -3.75937717e-03, -5.76671865e-03, -3.02649383e-03,
       -7.24050961e-03, -2.69734836e-03, 1.42716244e-03, 4.51908819e-03,
       6.68635033e-03, 1.01154693e-03, -2.49660667e-03, -6.05340628e-03,
       -4.18854877e-03, -7.84296822e-03, -5.28071169e-03,
       -4.73809242e-03, 3.14196339e-03, 6.68866700e-03, 2.59240449e-04,
       -4.82697971e-03, -5.34527004e-03, -4.21853224e-03,
       -7.00177392e-03, -4.32114722e-03, -4.52766335e-03, 2.33595492e-03,
       5.08042611e-03, -1.86645938e-03, -4.67100134e-03, -6.39296230e-03,
       -3.20289005e-03, -6.34380057e-03, -1.44700764e-03,
       -2.26072432e-03, 1.37332978e-03, 4.57274867e-03, -1.22926780e-03,
       -4.88919625e-03, -5.37786586e-03, -4.29476798e-03,
       -7.46761821e-03, -4.57693450e-03, -3.82647640e-03, 2.20780796e-03,
       6.84785075e-04, -1.72230694e-03, -7.48576550e-03, -7.43461819e-03,
       -4.86433459e-03, -8.19241907e-03, -3.56432120e-03,
       -2.73147714e-03, 2.52632145e-03, 4.65200003e-03, -2.30290880e-03,
       -4.50821966e-03, -4.83675441e-03, -4.09804285e-03,
       -7.01731537e-03, -2.35081837e-03, -2.06241244e-03, 1.78024266e-03,
       2.43831868e-03, -4.82987938e-03, -5.59556764e-03, -5.23971347e-03,
       -2.33672466e-03, -2.48592789e-03, 2.05486617e-03, 2.40977795e-04,
       3.77461920e-03, 3.93695058e-03, -4.14016331e-03, -5.54804876e-03,
       -7.74402171e-03, -5.45916660e-03, -9.12215281e-03,
       -2.17374275e-03, 9.15924844e-04, 5.84774790e-03, 3.38884373e-03,
       -6.52977871e-03, -6.26813201e-03, -9.65018570e-03,
       -5.43840555e-03, -5.82719874e-03, 1.17005815e-03, 3.72813724e-04,
       3.57940583e-03, -1.04045391e-03, -5.82706602e-03, -4.69676917e-03,
       -5.89108933e-03, -4.56804130e-03, -4.03631106e-03,
       -2.30665598e-03, -3.36599257e-03, 9.66017018e-04, -9.95535636e-04,
       -2.56126374e-03, -1.93630042e-03, -1.03883562e-03, 6.42433483e-03,
       1.80927722e-03, 7.74287269e-04, -2.97689741e-03, -3.47104709e-04,
       -6.31913543e-04, -6.85298629e-03, -6.29623001e-03,
       -7.26799201e-03, -4.91247280e-03, -1.62964093e-03,
       -7.91071856e-04, -4.16893046e-04, 1.50706130e-03, -5.39644668e-03,
       -7.63419317e-03, -6.81713736e-03, -6.64817216e-03, 2.82763783e-03,
       1.42763229e-03, -3.38938250e-03, -4.05657059e-03, -2.14257115e-03,
       -5.37819043e-03, -3.82115133e-03, -5.19712036e-03,
       -5.31956321e-03, -4.97372355e-04, 5.16276632e-04, 4.31368040e-04,
       -2.98833870e-03, -2.99244886e-03, -6.25888957e-03,
       -4.26285947e-03, -4.85795317e-03, -4.18197550e-03, 4.38959664e-03,
       3.42653855e-03, 4.93546901e-03, 2.22764350e-03, -1.67448714e-03,
       -6.05527731e-03, -5.63248666e-03, -6.69185258e-03,
       -7.25882780e-03, -1.19894173e-03, 3.05021185e-05, -5.36038482e-04,
       6.35138771e-04, -8.19091452e-04, -6.18149946e-03, -5.90839516e-03,
       -6.52589556e-03, -6.48447964e-03, 1.46186037e-03, 1.92175421e-03,
       3.38368444e-03, 3.09076719e-03, -2.74666748e-03, -4.57929121e-03,
       -2.83536944e-03, -4.60314710e-04, -8.50638782e-04, 1.99751975e-03,
       9.55291125e-06, 1.73085963e-03, -1.83377089e-03, -2.64014606e-03,
       -4.21654619e-03, -1.41802558e-03, 9.72281559e-04, 1.06057292e-03,
       3.67302820e-03, 2.89113563e-03, 6.43549836e-04, -3.54161579e-03,
       -2.28023180e-03, -4.39663464e-03, -4.10293695e-03,
       -1.82165659e-03, -1.89595949e-03, 7.70045212e-04, -9.42911778e-04,
       1.37110241e-03, 1.05498548e-04, -2.53635086e-03, -5.65836299e-03,
       -3.46289459e-03, 2.01844538e-04, 6.81502979e-06, 4.22952184e-03,
       1.83294760e-03, 9.50526039e-04, -7.35146576e-04, -1.45461829e-03,
       -4.38309927e-03, -2.39578821e-03, -1.31264166e-03, 1.56647095e-03,
       2.53139297e-03, 3.48810013e-03, 1.77091715e-04, -1.40324689e-03,
       -2.28445744e-03, -3.10621737e-03, -2.78103608e-03, 3.26574431e-04,
       1.80221174e-03, 4.86667128e-03, 3.32919951e-03, 8.25699419e-04,
       7.72665197e-04, -1.36430224e-03, -5.22522815e-03, -4.23339661e-03,
       -1.99635397e-03, -2.38676032e-04, 2.95520853e-03, 2.00425810e-03,
       2.09313701e-03, 1.20592664e-03, -7.96970853e-04, -4.42335475e-03,
       -2.55034794e-03, -2.84727151e-03, -4.05425817e-04, 4.86011943e-03,
       1.18763582e-03, 1.58586551e-03, 4.20627766e-04, -1.61740521e-03,
       -2.70295539e-03, -1.79550506e-03, 5.17188571e-04, 1.99949648e-03,
       4.17402387e-03, 2.83886120e-03, 2.46377033e-03, 1.85726013e-03,
       -6.49453024e-04, -2.90901237e-03, -3.05772456e-03, 4.84994234e-05,
       1.41102890e-03, 6.85148640e-03, 6.54857047e-03, 2.76095024e-03,
       -6.36993092e-04, -2.92342436e-03, -2.73118634e-03,
       -2.11734814e-03, -1.23902352e-03, -2.02038907e-04, 2.79899058e-03,
       1.86474295e-04, -5.09782403e-05, 3.69505316e-04, 3.64819309e-04,
       -2.89035006e-03, -2.58741598e-03, 1.48215808e-03, 2.11973116e-03,
       6.57046819e-03, 3.70860100e-03, 5.21416368e-04, 5.00241644e-04,
       -1.11837790e-03, -3.71363992e-03, -3.99945024e-03,
       -1.10432762e-03, 1.84302870e-03, 5.80299087e-03, 8.20338074e-03,
       2.28205300e-03, 6.12206495e-05, -2.79355352e-03, -3.60382139e-03,
       -1.80888548e-03, -1.38195080e-03, 1.32992887e-03, 2.36784038e-03,
       3.32919066e-03, -3.15545127e-04, 1.30554498e-03, -2.26719654e-03,
       -3.99235403e-03, -4.00860608e-03, 3.53510040e-05, 2.82490347e-03,
       8.00040923e-03, 9.23884474e-03, 1.99237256e-03, 8.55186256e-04,
       -2.64244201e-03, -1.91929739e-03, -5.59117354e-04,
       -3.24686430e-03, 7.15570117e-04, 4.09827521e-03, 3.31288110e-03,
       1.70326896e-03, 2.55617988e-03, -6.33423449e-04, -3.82781494e-04,
       4.18780910e-05, -1.29636057e-04, 1.33938738e-03, 2.52625789e-03,
       -1.30724348e-03, -8.27382260e-04, -2.27356981e-03,
       -1.62560330e-03, -7.16730196e-04, -3.08293704e-04, 5.39367378e-04,
       1.20900944e-03, 2.96816975e-03, -8.79313448e-04, -3.55216733e-04,
       -2.18596496e-03, -1.56359759e-03, -1.36047881e-03,
       -1.74264656e-03, 3.27342772e-04, 2.09266227e-03, 1.75330671e-03,
       7.14445545e-04, 1.86787464e-03, -1.18316710e-03, -8.85413610e-04,
       6.53789612e-04, 3.08464223e-04, -1.72788466e-04, 1.41337188e-03,
       -5.76990831e-04, -1.73125218e-03, -7.48303137e-04,
       -2.37837108e-03, 9.57426208e-04, -3.96654999e-04, -1.38331845e-03,
       8.88102571e-04, 1.58865657e-03, 2.27936008e-03, -7.89076730e-04,
       -9.81517485e-04, -3.48189101e-03, -2.34460318e-03,
       -5.01463481e-04, 1.35486596e-03, 2.22197501e-03, 7.77601788e-04,
       2.50648241e-03, -2.21208413e-03, -3.08225001e-03, -9.75294912e-04,
       -2.10786890e-03, 9.91699984e-04, 2.19050678e-03, 1.34480349e-03,
       -1.19023840e-03, -2.12233761e-04, -2.29072827e-03,
       -2.20686221e-03, -3.40602151e-03, -5.11151389e-04,
       -2.66508461e-04, 6.14755321e-04, 1.17704179e-03, -2.13109120e-03,
       2.20866525e-03, -5.81331784e-04, -1.58658298e-03, -1.83999189e-03,
       -2.64072395e-03, 1.91903464e-03, 4.01580567e-03, 4.72298265e-03,
       2.80556432e-03, 1.73000642e-03, -2.02178513e-03, -4.00575157e-03,
       -1.88891205e-03, -2.01674155e-03, -2.17208825e-03, 1.79938087e-03,
       -4.28497849e-04, 3.11984069e-04, 5.15202177e-04, -3.26790521e-03,
       -3.03089083e-03, -3.98777379e-03, -4.56569949e-03,
       -2.61882343e-03, -5.69698052e-04, 3.08287679e-04, -2.16636900e-03,
       -2.43048140e-04, -1.47281005e-03, -1.55388296e-03,
       -2.15896289e-03, -5.08305011e-03, -4.52948688e-03,
       -3.61897075e-03, -6.35633571e-03, -2.29563680e-03,
       -5.91613178e-04, -3.06401704e-03, -1.82758272e-03,
       -3.57402465e-03, -3.46503174e-03, 1.54980307e-03, 3.85930273e-03,
       -1.20287202e-03, 2.18042929e-04, 4.19995608e-03, -1.17850269e-03,
       -2.21443363e-03, -3.65046738e-03, -2.04498041e-03,
       -1.24248839e-03, -1.40011834e-03, 1.01760542e-03, 2.56726798e-03,
       2.05986598e-03, -1.34964054e-03, -3.57668079e-03, -3.52254347e-03,
       -1.98340206e-03, -4.58877115e-03, -4.11336403e-03,
       -7.51504442e-03, -3.19810561e-03, -9.73580638e-04,
       -2.36610253e-03, -2.78100604e-03, -3.53875733e-03,
       -4.85679880e-03, -4.73710848e-03, -1.77817116e-03, 6.34070544e-04,
       1.59898121e-03, 1.94213237e-03, -2.01705820e-03, -3.56199290e-03,
       -4.93966229e-03, -5.55168698e-03, -1.40190648e-03,
       -2.22482323e-03, 3.24605219e-03, 5.46934968e-03, 2.93478230e-03,
       -5.19335910e-04, -2.64643715e-03, -3.91653040e-04, 5.95299935e-04,
       9.53575771e-04, -1.53543020e-03, -1.44722138e-03, -2.77002022e-04,
       -1.49086548e-03, -3.89601756e-03, -4.67948522e-03,
       -1.68380537e-03, -5.41538466e-04, -7.05950102e-03,
       -1.90443348e-03, 9.01968568e-04, 2.45433813e-03, 9.89035238e-04,
       -3.07796057e-03, -5.17220283e-03, -5.32484706e-03,
       -6.35275664e-03, -4.25755698e-03, -5.39336761e-04,
       -5.36439882e-04, -1.54734391e-03, -2.34269653e-03,
       -6.02564635e-03, -6.69109775e-03, -6.81921979e-03,
       -6.48405915e-03, 7.02160504e-03, 4.80582565e-03, 2.09008763e-03,
       2.26118765e-03, 2.44241138e-03, -3.82762053e-03, -3.56157846e-03,
       -5.40438166e-04, 1.92312140e-03, 1.38040469e-03, -1.88650039e-04,
       -3.32768657e-03, -2.96246051e-03, -1.05716079e-03,
       -6.13775291e-03, -6.22321991e-03, -5.22851432e-03,
       -2.93750898e-03, -2.48919171e-03, -2.00148043e-03,
       -1.41474989e-03, -2.63323355e-03, -8.88313865e-04,
       -5.66564174e-03, -6.00742782e-03, -6.20518858e-03,
       -4.90081403e-03, -1.94511202e-03, -7.74837099e-04, 3.92556376e-06,
       -2.20227940e-03, 4.54875932e-04, -6.24091178e-03, -7.80819403e-03,
       -7.85075780e-03, -5.59480721e-03, 4.83099697e-03, -1.82922100e-04,
       -2.07817508e-03, -5.08273719e-04, 5.68069005e-03, -2.25678552e-03,
       -3.90185975e-03, -4.55373013e-03, 2.45023333e-03, -1.60396518e-03,
       -6.27232110e-03, -5.88923786e-03, -5.76970866e-03,
       -1.56743859e-03, -6.41332474e-03, -5.37946774e-03,
       -5.33394516e-03, -6.87336084e-04, -2.03028874e-04,
       -2.61993124e-03, -6.67211309e-04, -1.91115006e-03, 2.78083864e-03,
       -4.60204063e-03, -6.56699482e-03, -6.63323933e-03,
       -1.83676125e-03, 4.56399797e-03, 7.52993394e-04, 1.95113872e-03,
       -3.30380187e-03, 4.18798154e-05, -9.05646104e-03, -5.41745964e-03,
       -3.47664743e-03, 2.75470479e-03, -1.54496799e-03, -5.55003993e-03,
       -3.54954507e-03, -5.19082602e-03, -4.66781249e-03,
       -6.49551256e-03, -4.24011005e-03, -3.09701497e-03,
       -4.09507484e-04, -1.67901069e-03, -2.62449286e-03,
       -2.02202192e-03, -5.57610253e-03, -5.04020974e-03,
       -9.56998486e-03, -5.10777859e-03, -2.71942862e-03,
       -1.11723537e-04, 2.34211585e-03, -1.46318262e-03, 1.44457130e-03,
       -3.32116522e-03, -5.01240045e-03, -7.97451939e-03,
       -3.84114264e-03, -1.33614568e-03, 1.04904803e-03, 5.81240514e-03,
       3.19561386e-03, 3.30101443e-03, -1.25982158e-03, -3.27249197e-03,
       -9.10593476e-03, -3.50007717e-03, -1.03184301e-03, 4.40820074e-03,
       5.40325011e-04, -8.19233901e-06, -1.59356243e-03, -4.63915430e-03,
       -3.41803511e-03, -8.13927036e-03, -4.33004554e-03,
       -1.24095054e-03, 1.52404443e-03, -4.01443918e-04, -2.16707028e-03,
       -4.28717118e-03, -7.72967003e-03, -4.55420185e-03,
       -8.26599449e-03, -6.50606351e-03, -5.00205392e-03,
       -1.48320745e-03, 2.32804287e-03, 1.72729325e-03, -3.19270621e-04,
       -3.11172637e-03, -3.48701142e-03, -7.59752886e-03,
       -3.67772812e-03, 1.09430104e-04, 5.23190713e-03, 1.60702702e-03,
       3.32647446e-03, -2.60459539e-03, -8.52832664e-03, -6.82994723e-03,
       -8.08328949e-03, -4.50646458e-03, -2.17828457e-03, 9.97429248e-04,
       3.94871552e-03, -5.24027972e-04, -2.86574848e-03, -6.03554957e-03,
       -1.07073947e-03, -6.92008855e-03, -5.02643548e-03,
       -3.81824048e-03, 9.69902903e-04, 6.71898481e-04, -4.98299906e-03,
       -7.08322320e-03, -8.93762056e-03, -3.13006574e-03,
       -8.25937558e-03, -5.72931161e-03, -4.92756255e-03, 9.69546818e-05,
       3.43795074e-03, 2.79261702e-04, -4.11490072e-03, -8.23805202e-03,
       -5.68996370e-03, -4.65927646e-03, -8.26920790e-04, 5.60764223e-04,
       3.38619156e-03, 1.11024629e-03, -4.76520974e-03, -8.06994922e-03,
       -9.03789978e-03, -1.00637693e-02, -7.86788389e-03,
       -4.84665949e-03, -4.06398298e-03, 1.82012329e-04, 2.39677331e-03,
       -4.70622210e-03, -7.13077327e-03, -9.11424868e-03,
       -5.15450770e-03, -7.06872158e-03, -2.31466722e-03,
       -7.84605742e-04, 3.23646958e-03, 2.78633251e-03, -5.35003375e-03,
       -7.48547912e-03, -8.74964520e-03, 8.08335433e-04, 1.11473848e-04,
       4.23616683e-03, 3.43706692e-03, 3.65858385e-03, 1.35423196e-03,
       -6.66620582e-03, -7.81121058e-03, -9.05935094e-03,
       -7.54866702e-03, -5.23786619e-03, -1.89098145e-03, 3.16817968e-05,
       4.69764229e-03, -3.39711807e-03, -8.15834757e-03, -8.90664756e-03,
       -9.29756090e-03, -2.20834906e-03, -5.26557537e-03,
       -4.12073731e-03, 9.39276069e-04, 2.36436934e-03, -4.09106677e-03,
       -7.47670140e-03, -6.90079294e-03, -6.21059397e-03,
       -3.97710828e-03, -2.89346906e-03, -1.93585921e-03,
       -2.35097785e-03, -1.18990103e-03, -4.57459828e-03,
       -6.75692875e-03, -6.32611942e-03, -5.93954604e-03, 3.63541697e-03,
       1.57231197e-03, -1.35688344e-03, -1.57012069e-03, -2.65056570e-03,
       -5.66476909e-03, -7.50829559e-03, -7.06377067e-03,
       -6.60435762e-03, -3.92656168e-03, -4.30359878e-03, 1.22124024e-04,
       5.20478142e-03, 2.07158527e-03, -6.85989857e-03, -8.21438897e-03,
       -7.50132650e-03, -6.86401827e-03, 2.11269199e-03, -1.58603478e-03,
       3.54869495e-04, 6.68463355e-04, -3.18836514e-03, -4.84354282e-03,
       -5.23041282e-03, -5.29215904e-03, -6.95021637e-03, 2.01587030e-03,
       4.82771575e-04, -8.98714425e-05, 1.07208150e-03, -2.29955441e-03,
       -4.10445686e-03, -5.75618818e-03, -4.88789054e-03,
       -4.83723963e-03, 5.66122634e-03, 4.31528175e-03, 6.61869859e-03,
       4.76399856e-03, -2.26108270e-04, -5.58095193e-03, -7.41375284e-03,
       -7.30757555e-03, -7.53949862e-03, 1.75279472e-03, -6.32904121e-04,
       1.25025748e-03, 2.96111219e-03, -1.37956615e-03, -6.63030148e-03,
       -8.23678821e-03, -8.10784008e-03, -6.63589966e-03, 2.09597754e-03,
       -2.84190231e-04, 9.83144040e-04, -7.94864027e-04, -1.90529635e-03,
       -5.22218412e-03, -6.27163472e-03, -4.53356188e-03,
       -3.82686546e-03, -1.54247013e-04, -1.93756350e-04, 2.19632220e-03,
       1.43152557e-03, -2.18906347e-03, -6.06339984e-03, -5.06540248e-03,
       -1.81345444e-03, -1.12919114e-03, 3.57519859e-03, 1.52851210e-03,
       4.49645706e-03, 4.32204641e-03, 2.11794535e-03, -6.71436731e-03,
       -7.61956442e-03, -6.14866568e-03, -4.83180536e-03, 1.05938665e-03,
       8.12616316e-04, 8.36612526e-05, 4.93016210e-04, -1.52149552e-03,
       -6.99047046e-03, -7.21484050e-03, -5.11446455e-03,
       -2.80312495e-03, 4.08762414e-03, 1.64107652e-04, 2.70186923e-03,
       6.41084625e-04, -3.82152456e-03, -5.76383900e-03, -5.13374293e-03,
       -2.60562473e-03, -1.15841080e-03, 2.41024327e-03, -1.03646875e-04,
       2.99051800e-03, 2.32792296e-03, -1.99381099e-03, -3.94022278e-03,
       -3.23226885e-03, -3.73762194e-03, -2.46828096e-03, 4.81568649e-03,
       3.93331330e-03, 2.11887085e-03, 8.42067064e-04, -3.11204349e-03,
       -5.60628902e-03, -6.14988292e-03, -4.34643589e-03,
       -5.16884960e-04, 2.54889741e-03, 1.00029155e-03, 3.57612781e-03,
       2.39568041e-03, -3.63330310e-03, -4.23281780e-03, -3.30596929e-03,
       -2.37803883e-03, -4.59990901e-04, 5.37922373e-03, 5.93112595e-03,
       1.97733822e-03, 5.81217580e-04, -3.97014013e-03, -2.25658691e-03,
       -2.50851037e-03, -3.04107089e-03, -2.08894839e-03, 1.35060539e-03,
       1.13308814e-03, 8.59346124e-04, 1.58113521e-03, -1.04684778e-03,
       -3.89079843e-03, -4.56135953e-03, -9.06391302e-04, 1.96756446e-03,
       4.52582678e-03, 3.11928568e-04, -8.70923977e-04, 5.40783047e-04,
       -1.94335287e-03, -2.47119041e-03, -1.64319144e-03,
       -1.62522111e-03, -4.38008952e-04, 3.49693792e-03, 2.79506599e-03,
       1.17212906e-03, 5.91946591e-04, -1.75885775e-03, -2.99624028e-03,
       -3.12347105e-03, -2.70265649e-04, 5.18780248e-03, 7.98148196e-03,
       1.39691692e-03, 2.68894568e-04, 9.78941913e-04, -1.63944007e-03,
       -3.06156441e-03, -4.39961301e-03, -1.16317230e-03, 2.68758205e-03,
       8.44885688e-03, 3.66021506e-03, -1.69690466e-04, 1.23637624e-03,
       -1.46121089e-03, -1.25029008e-03, -2.36906740e-03,
       -4.80254227e-03, -7.34227186e-04, 2.65472033e-03, 1.32666749e-03,
       3.16028571e-04, 2.96023977e-03, 1.00635865e-03, -3.95695772e-03,
       -3.16920038e-03, -4.89812810e-04, 6.36219885e-03, 1.04745282e-02,
       5.88140101e-04, -4.34957561e-04, 1.38902792e-03, -1.38992385e-03,
       -8.92026874e-04, -2.38158694e-03, -3.00869648e-03, 1.51987828e-03,
       5.52541343e-03, 9.52435075e-04, -4.38676216e-04, 1.05588243e-03,
       1.09288876e-03, -3.73550295e-03, -1.12830219e-03, 2.36762781e-03,
       2.17898679e-03, 1.38656539e-03, 1.93906680e-03, 2.30792607e-03,
       -8.74973019e-04, -2.31264113e-03, -2.09788838e-03, 3.37103702e-04,
       1.10280665e-03, 2.90068041e-04, -1.11697195e-03, 2.04870375e-04,
       -6.67120214e-04, -1.91602716e-03, -1.29304698e-03,
       -6.02357648e-03, -1.32583396e-03, 2.38778209e-03, 1.06068340e-03,
       1.04237848e-03, 3.64896981e-03, 1.19733019e-03, -3.12316208e-03,
       -5.49998228e-03, -7.44788442e-03, -3.02192150e-03, 2.87310191e-04,
       -9.24407796e-04, 1.70501618e-04, 2.05738307e-03, -2.99345556e-04,
       -3.46108084e-03, -5.15763462e-03, 1.94921697e-04, 2.37948494e-03,
       2.91462615e-03, -1.83032406e-03, 1.84087927e-04, -7.16755821e-05,
       -3.17420508e-03, -4.11146367e-03, -1.97920902e-03,
       -1.68493623e-03, 2.36978711e-04, 7.00343808e-04, -3.80407227e-03,
       9.21484170e-05, -2.70685036e-04, -1.99044729e-03, -3.57420323e-03,
       -3.72306351e-03, -3.51260439e-03, -1.88358838e-03, 6.38314465e-04,
       -1.60936371e-03, 2.65974877e-03, 2.28674128e-03, -3.66784609e-03,
       -4.03479300e-03, -2.93562002e-03, -5.04500372e-03,
       -4.41735564e-03, -2.23525031e-03, -3.65454191e-03, 3.88704892e-03,
       -1.15952175e-03, -1.88930985e-03, -3.76359653e-03,
       -3.31684318e-03, 4.08448884e-03, 2.93532247e-03, 2.37725885e-03,
       -1.00672257e-03, 6.73734397e-03, -1.27782143e-04, 9.31031187e-04,
       -7.65864621e-04, 2.09394275e-04, -1.47591974e-03, -2.02489062e-03,
       -4.50680219e-03, -3.41453496e-03, 1.56479806e-03, -1.23271218e-03,
       -2.53357372e-04, -5.15540480e-04, -2.74923141e-03,
       -2.95923976e-03, -4.85278387e-03, -2.33642361e-03,
       -3.06580868e-03, 3.44459526e-03, -5.49559598e-04, -1.40969956e-03,
       -2.73167505e-03, -1.22209440e-03, -4.57510678e-03,
       -6.04638364e-03, -4.28201817e-03, -4.65545570e-03,
       -1.14798942e-03, -2.35361955e-03, -3.25407390e-03,
       -1.78024895e-03, -3.12878448e-03, -4.63285745e-04,
       -2.36429647e-03, -4.28070268e-03, -2.75777327e-03, 1.41237990e-03,
       6.95724331e-04, -5.56957850e-04, -4.52941633e-04, -2.59898044e-03,
       -5.72225871e-03, -4.54308791e-03, -1.38641347e-03, 1.29365560e-03,
       2.97325139e-04, -1.04894605e-03, -3.31388367e-03, -4.02632309e-03,
       -5.44596184e-03, -3.85662867e-03, -4.86455858e-03,
       -1.95108110e-03, -3.45314736e-03, 3.33431992e-04, -3.20069166e-03,
       -4.15076083e-03, -3.04565788e-03, -3.69407097e-03,
       -3.25018866e-03, -2.65772128e-03, 8.69800104e-04, 3.34670255e-03,
       1.97720225e-03, -2.20004865e-03, -4.29586368e-03, -4.42358712e-03,
       -4.76023182e-03, -2.60253786e-03, -5.63585316e-04, 1.05111930e-03,
       2.69154506e-03, 5.17161703e-03, 4.15732211e-04, -1.54851063e-03,
       -1.08617975e-03, -2.77564768e-03, -4.81174467e-03,
       -8.02563329e-04, 2.29459460e-04, -1.06610695e-03, 1.57721643e-03,
       -6.09703455e-03, -6.26946473e-03, -6.30209316e-03,
       -5.64847700e-03, -5.09739807e-03, -4.47149435e-03,
       -1.44292240e-03, 1.42168603e-03, 1.53384288e-03, -2.51061958e-03,
       -5.90253668e-03, -5.25882468e-03, -5.94377192e-03,
       -2.30372511e-03, 1.53609028e-03, -2.51062214e-03, -2.02598167e-03,
       5.09569771e-04, -6.25407882e-03, -6.55523920e-03, -6.29061088e-03,
       -5.15027251e-03, -2.29613227e-03, -5.98891987e-04, 1.44796865e-03,
       1.27894967e-03, 6.73719030e-03, -4.80305497e-03, -5.19396318e-03,
       -5.74083440e-03, -3.13906558e-03, -4.60298685e-03,
       -2.42583686e-03, -3.83231003e-04, -3.67298909e-03, 6.74225041e-04,
       -6.62536873e-03, -8.35422520e-03, -8.66970513e-03,
       -7.97418877e-03, -1.60796358e-03, -8.52792800e-05,
       -9.08335845e-04, -2.22521415e-03, 5.04612364e-03, -5.00627467e-03,
       -6.44581951e-03, -6.28860807e-03, -4.39539785e-03,
       -6.68060267e-04, 2.40134820e-03, 5.28000854e-03, 2.01994437e-03,
       5.09362621e-03, -6.90039992e-03, -8.19048192e-03, -7.22971326e-03,
       -5.51121542e-03, -2.22944049e-03, -1.62542798e-04, 9.32560652e-04,
       -2.10437458e-03, -1.62214437e-03, -5.42690326e-03,
       -8.11608136e-03, -6.38902560e-03, -4.70532989e-03,
       -1.00815647e-04, 9.32989933e-04, -3.75226577e-04, -4.31701122e-03,
       -4.30995878e-03, -9.07384790e-03, -8.04772973e-03,
       -4.80987597e-03, -2.06177961e-03, 1.61569740e-03, 3.23229702e-03,
       2.20146310e-03, -1.45741890e-03, -4.22818260e-03, -7.36925099e-03,
       -8.13688431e-03, -6.65772147e-03, -1.65224320e-03, 6.48904499e-03,
       3.63536319e-03, 5.75374579e-03, 2.54528201e-03, 3.31706437e-03,
       -6.47081574e-03, -5.47460653e-03, -3.42131895e-03, 2.76327715e-03,
       -2.16855924e-03, -7.07409810e-04, 5.49517688e-04, -3.51000438e-03,
       -5.63078374e-03, -6.85166614e-03, -4.59035300e-03,
       -2.52900016e-03, -2.57531158e-03, -4.76981187e-03,
       -4.08930099e-03, -5.41022106e-04, -2.36393698e-03,
       -6.37675356e-03, -7.22761778e-03, -3.81933595e-03,
       -3.04722739e-03, -3.56442365e-03, 1.58417551e-03, -1.10209931e-03,
       1.33316719e-03, -1.26763317e-03, -3.06038605e-03, -5.73050277e-03,
       -4.20198403e-03, -2.81100947e-04, 9.17074096e-04, 1.87505258e-03,
       -3.01378372e-04, 5.03140409e-03, 3.62344290e-04, -4.74389736e-03,
       -7.53927371e-03, -4.17158706e-03, 4.94983804e-04, -2.87375995e-04,
       -1.50549551e-03, -9.10873117e-04, 1.24118361e-03, -7.67709804e-04,
       -3.12793069e-03, -6.90087397e-03, -2.76019843e-03,
       -1.24436023e-03, -1.26450218e-03, -4.15882654e-03, 1.08084059e-04,
       -1.83688453e-03, -6.18210342e-03, -8.20758753e-03,
       -8.14501289e-03, -4.40542493e-03, -3.21255857e-03,
       -4.44095675e-03, 1.48562633e-03, -1.51474390e-03, 2.94939964e-03,
       -2.11943849e-03, -6.75906334e-03, -8.19863379e-03, 1.72562359e-05,
       3.21569573e-03, 2.81504821e-03, -4.14078310e-03, -2.03808956e-03,
       -1.07255368e-03, -5.90710156e-03, -1.01851420e-02,
       -7.57097406e-03, -3.01209325e-03, 1.14297227e-03, -2.53949827e-03,
       7.85512151e-04, 3.03870370e-03, 1.98022157e-04, -5.59060974e-03,
       -3.66082881e-03, -6.53085764e-03, -1.32390577e-03,
       -1.96968135e-03, -5.52483543e-04, 1.41217984e-04, -3.24004074e-03,
       -5.03626605e-03, -7.22326012e-03, -5.14606945e-03,
       -7.28831394e-03, -5.04296599e-03, -4.38804971e-03,
       -1.08115305e-03, 6.28274400e-04, 2.00582412e-03, 2.20473856e-03,
       -2.93822843e-03, -4.77723498e-03, -4.42821532e-03,
       -1.68827164e-03, 4.42118384e-04, 2.29428359e-03, 4.86178003e-04,
       -5.74308506e-04, -2.02983851e-03, -4.56561381e-03,
       -4.20944067e-03, -6.76288875e-03, -4.76064254e-03,
       -6.20489055e-03, -7.56214664e-04, -5.50436846e-04,
       -6.37282245e-03, -6.58612372e-03, -6.86603319e-03,
       -1.71843066e-03, -5.37903141e-03, -3.89340054e-03,
       -1.66473922e-03, 2.00890866e-03, -5.35691762e-03, -8.21485091e-03,
       -7.36568822e-03, -9.04400926e-03, -3.04967142e-03,
       -5.43013215e-03, -2.51965318e-03, -3.10809090e-04,
       -9.72631620e-04, 2.20684172e-03, -2.17612810e-03, -3.29725142e-03,
       -4.25907038e-03, 2.41173664e-03, -1.80092640e-03, 1.78524264e-04,
       -4.02653497e-03, 1.97867816e-03, -5.51996473e-03, -7.18237413e-03,
       -5.92274545e-03, -8.70021991e-03, -7.41068693e-03,
       -4.05929098e-03, -2.13196687e-03, -6.05905487e-04,
       -1.91333913e-03, -7.06828432e-03, -6.22296613e-03,
       -5.85186062e-03, -6.77904580e-03, -6.40300242e-03,
       -4.84782970e-03, -1.49079761e-03, 7.26479047e-05, -1.26620138e-03,
       -5.11745783e-03, -5.41909970e-03, -5.33145387e-03,
       -3.85798397e-03, 7.51681998e-03, 3.72467010e-04, 5.41281980e-03,
       -1.56546559e-03, -2.78627500e-03, -7.51229748e-03,
       -7.04150135e-03, -5.95095847e-03, -7.07051158e-03,
       -7.38742948e-03, -2.74732779e-03, 1.51203515e-03, 1.99975620e-04,
       -3.31778824e-03, -8.27010348e-03, -7.89813511e-03,
       -6.58701034e-03, -6.85542310e-03, -1.12443825e-03,
       -5.49062109e-03, -1.40231138e-03, -1.62686629e-03,
       -5.22481464e-03, -6.36571925e-03, -6.21885760e-03,
       -6.28300477e-03, -5.03973523e-03, -2.40146328e-04,
       -7.36079644e-04, 1.55910233e-03, -7.05774728e-05, -3.66347726e-03,
       -6.82855910e-03, -7.27242697e-03, -6.99765282e-03,
       -3.97200882e-03, 3.95826856e-03, 3.13724228e-03, 3.34130507e-03,
       3.36169061e-04, -2.77153240e-03, -7.39631336e-03, -7.49992952e-03,
       -6.73695980e-03, -6.36593252e-03, -2.47037504e-03, 2.62513361e-03,
       4.21646191e-03, 1.38079107e-03, -5.45912515e-03, -8.42602272e-03,
       -7.75839202e-03, -6.52805436e-03, -4.74100048e-03, 1.73808692e-03,
       2.94195884e-03, 4.77805268e-03, -1.53238070e-03, -7.82589521e-03,
       -5.84980519e-03, -5.67380013e-03, -4.87507135e-03,
       -3.14722816e-03, 4.16539749e-03, 1.23905984e-03, -4.06448526e-04,
       -1.46065827e-03, -2.37891823e-03, -4.23570955e-03,
       -5.45239495e-03, -2.74964143e-03, -2.09787092e-03, 6.61982503e-03,
       1.41812919e-03, 3.32907145e-03, 1.34729000e-03, -7.97397981e-04,
       -5.00336755e-03, -5.00546815e-03, -3.69337946e-03,
       -3.01105645e-03, 5.62071754e-03, 2.27880152e-03, 5.44100720e-03,
       -5.74350532e-04, -4.72369697e-03, -5.04556112e-03,
       -6.09979266e-03, -5.06062154e-03, -4.42637457e-03,
       -7.87312514e-04, -1.97082106e-03, -1.44806074e-03,
       -3.20638367e-03, -4.64007538e-03, -4.58515529e-03,
       -6.77412748e-03, -5.71775902e-03, -2.89140828e-03, 1.43623829e-03,
       3.49415292e-04, 2.62971572e-03, 7.59566727e-04, -1.67673640e-03,
       -2.07387074e-03, -3.93896969e-03, -3.16416053e-03,
       -5.61146764e-04, 2.57842918e-03, 4.54926817e-03, 4.42561368e-03,
       2.38180929e-03, 1.29788212e-04, -3.50132305e-03, -6.20419718e-03,
       -6.91395719e-03, -4.72893706e-03, -1.26330205e-03, 2.13770918e-03,
       1.08943503e-04, -2.42284336e-03, -3.70734348e-03, -2.90315761e-03,
       -6.34452701e-03, -5.55280410e-03, -2.22537760e-03,
       -1.86507867e-04, 1.67496549e-03, 5.74832258e-04, -2.83239991e-03,
       -1.65823509e-03, -1.61828729e-03, -2.76378426e-03,
       -1.92738196e-03, -4.47107566e-04, 1.78929116e-03, -4.79358860e-04,
       6.87693770e-04, -3.46681831e-04, -5.60253335e-04, -2.27172719e-03,
       -2.25148140e-03, -1.88554416e-03, 3.71519779e-03, 9.21112485e-03,
       2.04876577e-03, -1.69702026e-03, -8.58317770e-04, -1.44847855e-03,
       -1.51579210e-03, -4.42327559e-03, -2.58457684e-03, 8.78695922e-04,
       2.09028879e-03, -1.45969074e-03, -3.65044270e-03, -1.65569200e-03,
       -8.31971411e-04, -3.79846990e-03, -3.80964414e-03,
       -2.08894000e-03, 3.76867829e-03, 6.81262510e-03, -2.22921534e-03,
       -2.76927138e-03, -2.52283085e-03, -3.89786507e-03,
       -4.53300495e-03, -2.06836360e-03, -2.13904004e-03, 6.38756156e-03,
       1.19115533e-02, 2.75697140e-03, -1.38615130e-03, -1.15852966e-03,
       -2.38745334e-03, -2.12541595e-03, -3.03272600e-03,
       -2.33206106e-03, 1.17679569e-03, 4.81124409e-03, 3.22117732e-04,
       -1.29601953e-03, -3.89825582e-04, -9.78317694e-04,
       -4.42463439e-03, -2.60949181e-03, -1.63336878e-03, 6.23143231e-03,
       7.35530024e-03, 7.46233447e-04, -1.02543132e-03, -1.86264340e-03,
       -4.78916429e-03, -2.67152139e-03, -3.80426599e-03,
       -2.57948274e-03, 1.05517443e-04, 2.63733906e-03, 6.48965710e-04,
       6.35825709e-05, 2.04420227e-04, -1.04800274e-03, -3.95957241e-03,
       3.86592699e-04, 2.31093168e-03, 2.48896470e-03, 1.00291311e-03,
       3.13081942e-03, 6.73801813e-04, -2.45782849e-03, -4.89491364e-03,
       -5.97587042e-03, -1.99786061e-03, 1.23234277e-04, 2.14929663e-04,
       1.84330705e-03, 2.19534943e-03, -7.49440922e-04, -3.36696068e-03,
       -5.18048834e-03, -4.60215937e-03, -4.21083905e-03,
       -2.00680550e-03, 1.90409832e-04, 2.86286511e-03, 3.19252093e-03,
       4.66753496e-03, 3.12388584e-04, -2.18570349e-03, -5.41245798e-03,
       -5.44812856e-03, -3.52369621e-03, -2.50184233e-03,
       -7.05795901e-05, 2.57424195e-03, 7.69032864e-04, -2.14974163e-03,
       -5.60168270e-03, -2.40281224e-03, -1.74295128e-04, 2.22774385e-03,
       4.50017833e-04, 3.91384168e-03, 3.21105961e-03, -3.16771772e-03,
       -3.35500436e-03, -2.28658249e-03, -3.76231130e-03,
       -4.59002517e-03, -8.57224921e-04, -3.54537950e-03, 3.56383086e-03,
       -2.49341945e-03, -1.97332143e-03, -3.34824505e-03,
       -1.92455458e-03, -4.57293494e-03, -4.64392407e-03,
       -3.75849963e-03, -1.91762380e-03, 4.26875008e-03, 3.67026823e-03,
       2.47224409e-04, -3.87132680e-03, -4.93135815e-03, -5.28147398e-03,
       -5.55277709e-03, -2.71897833e-03, -3.74615076e-03, 2.52459175e-03,
       -2.47407798e-03, -4.42912942e-03, -5.36238123e-03,
       -4.18097479e-03, -1.02772401e-03, -3.64910276e-03, 8.29165001e-05,
       -3.04285600e-03, 8.28884821e-03, -1.10395929e-04, 9.64312407e-04,
       -1.00172248e-04, 2.71415850e-03, -4.57601855e-03, -5.45956055e-03,
       -2.38579069e-03, -2.75916769e-03, 9.75695148e-04, -2.29243538e-03,
       -2.93671340e-03, -3.20513430e-03, -2.73119588e-03,
       -2.20916490e-03, -6.18026080e-03, -1.29405130e-03,
       -3.92178912e-03, 5.26640704e-03, -1.04251294e-03, -1.80277124e-03,
       -2.75835581e-03, 2.41984162e-04, -7.46650947e-03, -7.56268762e-03,
       -2.58967304e-03, -2.46455707e-03, 5.19906729e-03, -2.29572761e-03,
       -2.79647252e-03, -4.56935773e-03, -4.86743776e-03,
       -2.12595347e-04, -3.34226829e-03, -8.17174674e-04,
       -7.84288626e-04, 7.03111477e-03, -2.25066533e-03, -1.29733945e-03,
       -2.21225806e-03, 3.53867857e-04, -5.70950285e-03, -4.82657319e-03,
       -1.44017674e-03, 1.32296025e-03, 3.47716757e-03, -1.64666015e-03,
       -2.65526026e-03, -4.63572983e-03, -6.24593580e-03,
       -7.27523305e-03, -6.70808507e-03, -4.11961414e-03,
       -1.41363160e-03, 3.96324368e-03, -3.76972766e-03, -3.50766326e-03,
       -4.72770631e-03, -6.61697006e-03, -8.50834977e-03,
       -4.29714937e-03, -4.08045715e-04, 3.73616233e-03, 3.49654187e-03,
       -1.66460394e-03, -4.71999682e-03, -6.49146643e-03,
       -7.01731164e-03, -4.75788675e-03, -2.93309242e-03, 9.17885161e-04,
       2.07266235e-03, 4.03643772e-03, -1.41833548e-03, -4.22212901e-03,
       -4.96661011e-03, -5.87905711e-03, -3.64015577e-03,
       -2.65451055e-03, -6.19526953e-04, -1.23553094e-03, 4.31440119e-03,
       -3.83478822e-03, -4.32586484e-03, -5.56353247e-03,
       -4.84964624e-03, -7.78095564e-03, -4.59175464e-03,
       -2.11432972e-03, 1.49497762e-03, 3.02460045e-03, -1.86525204e-03,
       -6.60188310e-03, -7.00284913e-03, -7.80662009e-03,
       -4.21326421e-03, -3.30743170e-03, 4.90136968e-04, 1.55129959e-03,
       1.08430181e-02, -3.42439255e-03, -4.26465366e-03, -6.07159454e-03,
       -5.66960778e-03, -4.96823620e-03, -2.15303944e-03,
       -5.71631361e-04, -4.30168555e-04, 3.33710760e-03, -3.09484126e-03,
       -4.86115133e-03, -5.09917596e-03, -6.84953714e-03,
       -4.98745544e-03, -1.14477787e-03, 2.22232426e-03, 4.24754573e-04,
       8.41749948e-04, -5.01381094e-03, -6.30225474e-03, -5.82317682e-03,
       -8.24884139e-03, -6.85527269e-03, -5.69514604e-03, 4.52698616e-04,
       4.18139389e-03, 2.82906042e-03, -1.70808227e-03, -5.70364064e-03,
       -6.26990898e-03, -8.59174225e-03, -6.03700150e-03, 1.12214409e-04,
       5.94501663e-03, 5.32173924e-03, 7.53225572e-03, -1.89716928e-03,
       -3.98080377e-03, -5.19424211e-03, -8.15063715e-03,
       -5.48658136e-04, 2.15643365e-03, 2.83450820e-03, -2.40464578e-04,
       -2.60202074e-03, -5.40006533e-03, -5.31453500e-03,
       -5.01248706e-03, -3.05273314e-03, 7.08843116e-04, 1.14400359e-03,
       1.79875572e-03, 1.17667485e-03, -1.72866927e-03, -6.01529796e-03,
       -5.80529170e-03, -3.96417547e-03, -1.84177153e-03,
       -3.75867751e-03, -1.53002562e-04, 2.26154202e-03, -7.97214161e-04,
       -1.54441583e-03, -2.93837767e-03, -4.37899772e-03,
       -4.59780265e-03, -5.30951237e-03, -6.98328193e-04,
       -8.22467147e-04, 7.34886387e-04, 2.71502603e-03, 7.03705358e-04,
       -4.20019869e-03, -5.50560560e-03, -3.26854619e-03,
       -2.78754160e-03, 1.05922495e-03, -1.90002169e-03, 6.87500578e-04,
       1.39118568e-03, 6.47911744e-04, -4.51878738e-03, -3.96672357e-03,
       -1.59296044e-03, 1.71867688e-03, -1.47056533e-03, -1.92358263e-03,
       1.04449282e-03, 6.23516898e-05, -3.83550278e-03, -5.21333143e-03,
       -2.58294446e-03, 3.72809794e-04, -1.03675819e-03, -4.18647891e-03,
       -2.60547665e-03, 1.86508551e-04, 3.39087658e-03, -2.46549171e-04,
       -3.75698274e-03, -3.94029543e-03, -2.78073759e-03,
       -3.28855938e-03, -6.15582289e-03, -4.27336385e-03,
       -3.86625288e-06, -2.76867097e-04, -2.80627748e-03,
       -4.27912548e-03, -3.76141164e-03, -3.00695421e-03,
       -2.85578705e-03, -2.84316414e-03, -1.32233941e-03, 5.02714189e-04,
       -2.55682995e-03, -4.35823062e-03, -5.20060584e-03, 9.42417391e-05,
       5.58974571e-04, -5.27913566e-04, -5.21534635e-03, -2.87456065e-03,
       -1.33954000e-03, -5.67096891e-03, -8.60892236e-03,
       -4.29147063e-03, -7.39335257e-04, -9.50027781e-04,
       -4.04455280e-03, -4.67248121e-03, -2.90034129e-03,
       -1.24161155e-03, -2.87486683e-03, -1.91664754e-03,
       -2.05358234e-03, 1.10488792e-03, -1.21102796e-03, -2.07427004e-03,
       -3.65725439e-03, -2.59440811e-03, -2.42785830e-03,
       -3.88860237e-03, -5.49663929e-03, -1.84088282e-03,
       -3.18143517e-04, -6.81617646e-04, -2.40911427e-03,
       -2.28319271e-03, -3.85765848e-03, -1.75053871e-03,
       -2.65503582e-03, -5.97269321e-03, -2.90446030e-03,
       -1.25655229e-03, -2.01686169e-03, -1.93781138e-03,
       -3.06057301e-03, -4.64777602e-03, -5.28786285e-03,
       -5.80189191e-03, -6.60725543e-03, -6.05683820e-03,
       -5.69850160e-03, -8.32213461e-03, -4.70931036e-03,
       -1.06235023e-03, -2.87268730e-03, -3.41602392e-03,
       -2.74635619e-03, -2.08910531e-03, 1.62111456e-03, 3.13616212e-04,
       6.98030863e-06, 1.77140319e-05, -2.78588221e-03, -5.69572160e-03,
       -6.06477261e-03, -5.14975982e-03, -1.37965963e-03,
       -1.92830723e-03, -1.50868480e-04, -2.33260100e-03,
       -1.90382043e-03, -1.80660095e-03, -2.80832942e-03,
       -2.70850630e-03, -4.84401686e-03, -2.38765380e-03,
       -1.53824245e-03, -2.88554677e-03, -4.80676955e-03,
       -2.17319326e-03, -5.70789538e-03, -6.66719722e-03,
       -6.61363546e-03, -7.66221946e-03, -7.85698090e-03,
       -3.50038405e-03, -3.05397832e-03, -1.04390434e-03,
       -2.50584469e-03, -1.71106996e-03, -4.03824355e-03,
       -3.67161771e-03, -3.07224388e-03, 3.92829347e-03, 3.17047979e-03,
       3.62842111e-03, 1.49731862e-03, -7.28700601e-04, -5.51878847e-03,
       -7.35063851e-03, -5.51294489e-03, -5.84906060e-03,
       -4.73860139e-03, -4.17391583e-03, -3.67990485e-03,
       -2.10984028e-03, -5.12589794e-03, -6.86063245e-03,
       -6.52647810e-03, -5.49847214e-03, -5.82307996e-03,
       -5.23635186e-03, -1.07397302e-03, 9.15168843e-04, 7.48553255e-04,
       -2.08503287e-03, -6.88762497e-03, -6.34189742e-03,
       -3.82759445e-03, -5.20104822e-03, 9.47362161e-04, -1.62311399e-03,
       7.54913781e-05, -9.20886640e-04, -3.27439839e-03, -5.54445293e-03,
       -5.02096722e-03, -1.83982379e-03, -3.10641830e-03, 4.65455469e-06,
       -3.17782653e-03, -1.81365199e-03, -1.92197890e-03,
       -3.49382847e-03, -8.53969529e-03, -8.32777657e-03,
       -1.45254249e-03, -1.22212095e-03, 1.64371217e-03, -2.97979219e-03,
       -7.98076275e-04, -4.14024526e-03, -5.73681248e-03,
       -8.70587770e-03, -7.68371718e-03, -7.33952504e-03,
       -5.75012900e-03, -9.19644022e-04, 1.99369434e-03, 2.14923616e-03,
       -1.99247804e-03, -7.18314294e-03, -6.51443703e-03,
       -6.93042297e-03, -5.86528564e-03, -2.66222889e-03, 7.72477826e-03,
       4.67808358e-03, 4.31834441e-03, -4.18766215e-03, -6.29660673e-03,
       -9.96373873e-03, -9.93733574e-03, -8.46471824e-03,
       -4.52322094e-03, 1.78607868e-03, 1.63905718e-03, -5.86557260e-04,
       -4.84963879e-03, -8.28448217e-03, -9.31650959e-03,
       -8.37167539e-03, -7.54140364e-03, -1.95352803e-03, 4.00039786e-03,
       3.16610350e-03, 5.80190390e-04, -7.29048392e-03, -9.08492133e-03,
       -5.06222481e-03, -5.19088050e-03, -3.62015818e-03,
       -2.08187057e-03, 5.12316963e-03, 3.44275893e-03, 1.96669227e-03,
       -5.88166947e-03, -6.14845147e-03, -3.78488982e-03,
       -5.49471891e-03, -5.01020160e-03, -2.74935737e-03, 1.99619611e-03,
       1.55860058e-03, 1.10278209e-03, -5.43215871e-03, -5.04698185e-03,
       -6.20239181e-03, -5.32114040e-03, -3.57468077e-03,
       -9.62833932e-04, 7.15989759e-03, 4.36588610e-03, 3.27265984e-03,
       -6.24756608e-03, -6.73147896e-03, -6.91301143e-03,
       -6.04817504e-03, -2.99279764e-03, -1.70175242e-03, 2.97481380e-03,
       1.38799718e-03, -1.77582406e-04, -6.20279135e-03, -6.88290317e-03,
       -1.77751889e-03, -3.42539372e-03, -5.43533498e-03,
       -2.22606864e-03, 2.39258585e-03, 1.52627891e-03, 3.34105949e-04,
       -3.93212773e-03, -4.03560791e-03, -1.26586703e-03,
       -2.70449393e-03, -4.07366036e-03, -8.12480459e-04, 6.66074362e-03,
       4.56666853e-03, 2.16746191e-03, -1.33051514e-03, -1.49826100e-03,
       -4.53620311e-03, -5.18556125e-03, -3.48520814e-03,
       -1.97176472e-03, 5.06917154e-03, -1.07891427e-03, -4.40456468e-04,
       -2.99355132e-03, -3.27378744e-03, -5.86735178e-03,
       -5.81579143e-03, -2.22483021e-03, -1.61674106e-03, 3.68707068e-03,
       7.24983169e-04, -1.31001091e-03, -2.22481391e-03, -4.99014230e-03,
       -2.04972154e-03, -3.81506141e-03, -2.55020638e-03, 4.32146189e-04,
       3.13344342e-03, 3.63696687e-04, -1.50279969e-03, -1.75687217e-03,
       -1.23041915e-03, -2.34607002e-03, -2.81628291e-03,
       -1.73547000e-04, 4.18639835e-03, 6.29821280e-03, -2.11114093e-04,
       1.22203946e-03, 6.55736658e-04, -1.15164754e-03, -6.65799994e-03,
       -5.61826630e-03, -1.80947187e-03, 3.95469222e-04, 4.17198101e-03,
       2.40443624e-03, -8.97532387e-04, -1.88062689e-03, -5.39936265e-03,
       -5.85908629e-03, -4.94247908e-03, -1.06947136e-03, 4.29690350e-03,
       3.90419969e-03, 3.34622595e-03, 9.81232151e-04, -1.60541909e-03,
       -4.32517240e-03, -2.65553268e-03, -2.58590677e-03,
       -4.60697163e-04, 6.15757378e-03, 3.87919042e-03, 9.01473744e-04,
       1.73446664e-03, -6.52902643e-04, -3.17929289e-03, -1.40698534e-03,
       -2.25339434e-03, -1.79698621e-03, 9.75064002e-04, 3.93570954e-04,
       1.69708836e-03, 1.72925892e-03, -1.09967310e-03, -1.03517366e-03,
       -3.60952085e-03, -2.75154645e-03, -8.62816058e-04, 5.43924049e-03,
       2.24758778e-03, 2.14631064e-03, 9.92840622e-04, -1.91432575e-03,
       -2.88548879e-03, -4.94255873e-05, -6.45168257e-05,
       -1.09410705e-03, -3.49000533e-04, -8.72746517e-04, 5.16126398e-04,
       9.53171868e-04, -5.46652707e-04, 1.32094766e-03, -2.93216947e-03,
       -3.17531498e-03, -1.00611988e-03, -1.05255761e-03, 3.42132011e-03,
       7.79060065e-04, 3.78604513e-03, -6.53564988e-04, -1.29972340e-03,
       -3.57124791e-03, -3.76786804e-03, -2.59163440e-03,
       -1.68180128e-03, -4.39797790e-04, 1.70373148e-03, 8.81378597e-04,
       -2.26500770e-03, -3.12802917e-03, -1.85585814e-03,
       -2.99610989e-03, -6.62284845e-04, -1.59227324e-03,
       -5.78720355e-04, -1.47444382e-03, -3.38648388e-04,
       -1.89323106e-03, -2.57125380e-03, -2.54582753e-03,
       -3.58128618e-03, -3.03639099e-03, -3.16946069e-03,
       -1.73439481e-03, -8.31855228e-04, 7.24032114e-04, -2.50097062e-03,
       -2.34368118e-03, -2.15461385e-03, -3.16072372e-03,
       -3.19727650e-03, -8.46418261e-04, 4.10303986e-03, 3.36873764e-03,
       4.18272772e-04, -2.54509435e-03, -2.85739847e-03, -3.76782659e-03,
       -3.98042379e-03, -4.54826135e-04, -1.68709201e-03, 4.41687228e-03,
       5.21888287e-05, -2.96964915e-03, -4.10378771e-03, -2.82557053e-03,
       -1.05121802e-03, -3.52531415e-03, -2.53435550e-03,
       -2.32942007e-03, 3.23317712e-03, -2.90754251e-05, -3.56836739e-04,
       -1.34035165e-03, -1.88140594e-03, -5.95370028e-03,
       -5.70537522e-03, -4.22189804e-03, -2.45410367e-03, 2.15994846e-03,
       9.73393850e-04, -2.23182747e-03, -2.53661792e-03, -3.06401984e-03,
       -3.03287990e-03, -3.95008689e-03, -9.11258976e-05,
       -2.53764330e-03, 2.16732477e-03, -8.03748917e-05, -2.53169728e-03,
       -3.13732796e-03, -1.11620233e-03, -7.37969764e-03,
       -6.27301028e-03, -3.86630464e-03, -3.51105491e-03, 2.58402713e-03,
       -7.02735037e-04, -2.45069852e-03, -4.67109261e-03,
       -5.34860417e-03, -2.81157531e-03, -1.18431402e-03, 6.54540025e-04,
       -2.10550521e-03, 1.68850459e-03, 2.08714302e-03, 6.09191193e-04,
       -1.14405388e-03, -1.04666699e-03, -6.89118402e-03,
       -5.88000938e-03, -3.55899916e-03, -4.20567114e-03, 8.68122908e-04,
       -1.62845559e-03, -3.99081176e-03, -4.77178534e-03,
       -6.02388987e-03, -7.04915635e-03, -6.09658752e-03,
       -2.54829251e-03, -3.52791627e-04, 2.99277715e-03, -3.67828598e-03,
       -3.95887624e-03, -4.79042158e-03, -6.43523829e-03,
       -8.77275690e-03, -7.32414331e-03, -3.19519849e-03, 1.35766005e-03,
       4.08340944e-03, -7.23425415e-04, -3.82816396e-03, -5.35762869e-03,
       -6.10944210e-03, -4.74939961e-03, -7.57123809e-03,
       -5.12340525e-03, -3.03101656e-03, 3.85990692e-03, -2.95548263e-04,
       -1.83983927e-03, -4.15667193e-03, -3.97990504e-03,
       -7.02678971e-03, -7.77052576e-03, -4.92106192e-03,
       -1.60912424e-03, 7.22822174e-03, 9.93958442e-04, -2.93097645e-03,
       -5.31764235e-03, -5.81444893e-03, -6.90178107e-03,
       -4.25079884e-03, -2.23584985e-03, 1.38508563e-03, 5.15557965e-03,
       -6.85697887e-04, -3.86030832e-03, -5.01805358e-03,
       -5.88202197e-03, -6.87753456e-03, -4.54531563e-03,
       -2.37950822e-03, 1.15811534e-03, 6.83154259e-03, -2.61568488e-03,
       -5.60026010e-03, -5.69960056e-03, -7.74145406e-03,
       -7.87985045e-03, -6.12221519e-03, -3.41621134e-03,
       -5.91871969e-04, 1.37448078e-03, -2.21603841e-04, -3.20193055e-03,
       -6.57403795e-03, -7.40859052e-03, -6.95418799e-03,
       -6.00055186e-03, 1.12674071e-03, 4.44411626e-03, 8.11151508e-03,
       -5.93642180e-04, -4.41438751e-03, -7.13991234e-03,
       -6.86174864e-03, -7.20446464e-03, -5.04163606e-03, 6.22803927e-04,
       3.06901778e-03, 4.22199070e-03, -5.99244784e-04, -4.57489071e-03,
       -5.69843827e-03, -7.09415274e-03, -7.86788575e-03,
       -4.41396609e-03, 2.22806702e-03, 2.89212610e-03, 5.80383791e-03,
       -4.88847552e-04, -3.00436513e-03, -5.49738761e-03,
       -8.02335422e-03, -6.61238050e-03, -5.91545412e-03,
       -1.88187941e-03, 1.62916910e-03, 3.77661432e-03, -1.35689508e-03,
       -3.77729791e-03, -5.00666164e-03, -5.91194583e-03,
       -7.75380153e-03, -5.13612805e-03, -1.65958412e-03, 2.72381143e-03,
       9.34986956e-03, 1.71748828e-03, -2.85895600e-04, -4.99742897e-03,
       -7.24655436e-03, -5.58790751e-03, -3.47546244e-04, 1.95253303e-03,
       1.69506413e-03, 3.42842657e-03, -1.98314781e-04, -1.97730307e-03,
       -3.69304745e-03, -4.78165597e-03, -4.81959945e-03,
       -4.31859912e-03, -1.50663254e-03, -3.89593624e-04, 1.79652206e-03,
       -7.19580858e-05, -3.05896765e-03, -2.48625688e-03,
       -3.87191842e-03, -5.28730592e-03, -3.10514006e-03,
       -1.35282194e-03, 3.32663243e-04, 5.78149222e-03, 3.15280166e-03,
       2.62649544e-03, -3.96354590e-03, -5.44476230e-03, -6.11225097e-03,
       -6.42055506e-03, -4.66388464e-03, -3.58633173e-04, 2.26224563e-03,
       4.71250270e-04, -2.20188452e-03, -2.56043929e-03, -4.63233050e-03,
       -3.89725412e-03, -3.99165740e-03, -1.99645292e-03, 9.86145809e-04,
       -9.36159631e-04, -1.09734794e-03, -2.68528564e-03,
       -2.43387162e-03, -3.69868311e-03, -6.31087832e-03,
       -5.47403237e-03, -1.76886225e-03, 2.46910844e-04, 4.05518978e-04,
       -1.79797574e-03, -1.19147520e-03, -2.79995264e-03,
       -3.16700735e-03, -4.73494129e-03, -6.78907195e-03,
       -5.70645323e-03, 3.67927307e-04, -3.79857811e-04, -1.61335384e-03,
       -6.67789136e-04, -1.01553474e-03, -2.41649710e-03,
       -6.64104847e-03, -6.29152963e-03, -3.31364945e-03, 8.87878650e-06,
       2.95783277e-03, 1.90435007e-04, 3.05934926e-04, -1.87027780e-03,
       -3.87230539e-03, -5.53627033e-03, -5.22649148e-03,
       -1.61728275e-03, -5.58439875e-04, 2.07746821e-03, -7.13089888e-04,
       -1.00004848e-03, -2.37750588e-03, -2.52991752e-03,
       -5.37838414e-03, -4.71641123e-03, -2.53614155e-03,
       -9.83436126e-04, -3.14549170e-03, -6.20386927e-05,
       -2.03862856e-03, -1.17844681e-03, -4.13309084e-03,
       -6.88931393e-03, -5.09131653e-03, -1.04507699e-03, 8.11428647e-04,
       4.60492400e-03, 1.40750292e-03, 1.14643783e-03, -1.13522378e-03,
       -4.70526936e-03, -8.74813925e-03, -7.24799652e-03,
       -1.68721576e-03, -3.52938980e-04, -1.28156471e-03,
       -1.80553575e-03, -2.80181575e-03, -3.77059286e-03,
       -5.86088421e-03, -3.30991973e-03, -3.80233326e-03,
       -3.01397918e-03, -1.27489667e-03, 2.21050228e-04, 8.23715818e-04,
       -1.55416864e-03, -4.57271963e-04, -2.01333896e-03,
       -5.02055744e-03, -6.91129547e-03, -5.16891340e-03,
       -2.55137845e-03, -8.30280536e-04, 5.58445987e-04, -2.85488466e-04,
       -5.59165841e-04, -2.95602321e-03, -8.07244517e-03,
       -6.99780555e-03, -1.46591233e-03, -4.19899734e-04, 8.78329389e-04,
       -1.21756608e-03, -2.27829278e-03, -2.37734709e-03,
       -5.38363028e-03, -1.07711786e-02, -8.20380077e-03,
       -4.21058387e-03, -2.35489089e-04, -3.07179114e-04, 1.13929017e-03,
       6.54474890e-04, -1.67422090e-03, -7.63831893e-03, -5.10654971e-03,
       -5.21966163e-03, -4.32532700e-03, -2.61706486e-03, 2.61338265e-03,
       1.66312628e-03, 1.87028782e-03, 5.48975426e-04, -3.26384744e-03,
       -6.68791914e-03, -5.41049242e-03, -4.56489297e-03,
       -4.56442358e-03, -5.80928382e-03, -4.94740764e-03,
       -3.70708248e-03, -2.90497090e-03, -6.61782315e-03,
       -7.24837510e-03, -6.22624811e-03, -3.76156392e-03, 1.00911711e-03,
       4.30278666e-03, 3.51295969e-03, 2.97003076e-03, -1.78297877e-03,
       -5.65048121e-03, -7.29965419e-03, -6.15663221e-03,
       -4.44148667e-03, -2.93822214e-03, -2.18179170e-03,
       -2.14458769e-03, -1.60048506e-03, -5.86970849e-03,
       -7.59081403e-03, -5.51007455e-03, -4.05151956e-03,
       -1.94867270e-03, -2.99350382e-03, -1.96945053e-04,
       -5.15143992e-03, -1.87467784e-03, -3.49867623e-03,
       -5.40790660e-03, -9.52650793e-03, -7.74480961e-03,
       -3.80556844e-03, -2.05115089e-03, 1.43574725e-03, -1.68403052e-03,
       -2.96718813e-03, -6.93819392e-03, -8.16568360e-03,
       -4.82686097e-03, -3.52803059e-03, -2.52719503e-03,
       -2.03079381e-03, 6.23974809e-03, -3.80588404e-04, -8.03049887e-04,
       -5.47096599e-03, -5.68082370e-03, -8.75981431e-03,
       -5.19228075e-03, -2.73165503e-03, -5.28730045e-04, 2.87665823e-03,
       -1.43766217e-03, -6.40812377e-03, -8.99715070e-03,
       -8.87774304e-03, -8.97774380e-03, -7.66277174e-03,
       -6.79868832e-03, -3.44959716e-03, 4.00930597e-03, 1.08074013e-03,
       -3.54407565e-03, -6.18708739e-03, -6.62985211e-03,
       -7.93143641e-03, -6.19826932e-03, -4.86971159e-03, 1.09534699e-03,
       7.88392033e-03, 2.48412625e-03, 1.03000039e-03, -6.12197910e-03,
       -7.46503426e-03, -8.22274853e-03, -6.93480717e-03,
       -2.97675212e-03, -7.02410529e-04, 2.94367154e-03, -1.97558524e-03,
       -8.21869727e-03, -7.34341471e-03, -7.09856488e-03,
       -7.86807574e-03, -6.82564313e-03, -3.02731991e-03, 6.00963482e-04,
       7.67347356e-03, 3.67151515e-05, -6.89208880e-03, -7.36661861e-03,
       -6.46558544e-03, -7.19585968e-03, -5.12644462e-03,
       -2.27219611e-03, 5.52862883e-04, 6.34284597e-03, 3.98721965e-03,
       1.18958903e-03, -4.89704357e-03, -6.41939091e-03, -7.26395054e-03,
       -6.20298646e-03, -1.67319807e-03, -1.41847262e-03, 3.21048964e-03,
       3.74109531e-03, -9.42496117e-04, -3.67818167e-03, -5.92555059e-03,
       -7.16513442e-03, -6.47533173e-03, -2.49700435e-03, 5.00558235e-04,
       7.03276880e-03, 1.73128827e-03, -3.93477548e-03, -4.46732016e-03,
       -5.43239759e-03, -5.74866729e-03, -6.57140510e-03,
       -3.17194243e-03, -1.83311710e-03, 8.41990393e-03, 1.12264301e-04,
       -3.14953737e-03, -5.16167050e-03, -3.97232920e-03,
       -4.50525014e-03, -5.06375032e-03, -1.15815434e-03,
       -1.78987975e-03, 4.44404688e-03, 1.14610372e-03, -1.58893527e-03,
       -2.56140949e-03, -3.59952240e-03, -5.65506844e-03,
       -3.67607735e-03, 1.04839914e-03, 1.62972850e-04, 3.38617852e-03,
       9.59697878e-04, -7.90969236e-04, -9.91373556e-04, -4.65311157e-03,
       -4.72412677e-03, -5.37389331e-03, -3.39371292e-03,
       -4.63034230e-05, 9.12968442e-03, 3.57085443e-03, -2.21558590e-03,
       -3.58572695e-03, -4.10145987e-03, -3.84692848e-03,
       -1.39813311e-03, 4.70554623e-05, 5.29529178e-04, 5.13098063e-03,
       7.14181515e-04, -2.75572320e-03, -3.39830224e-03, -4.11406672e-03,
       -7.12521886e-03, -4.03421326e-03, -5.75552578e-04, 6.66891108e-04,
       3.33669106e-03, 1.96045800e-03, -4.72607848e-04, -1.42096262e-03,
       -5.68835717e-03, -7.82663841e-03, -3.86619521e-03,
       -1.33443752e-03, 5.30862343e-03, 4.43764403e-03, 2.24719383e-03,
       6.20521780e-04, -3.44504556e-03, -7.70288846e-03, -6.04392262e-03,
       -2.85071647e-03, -1.44056894e-03, 1.37967232e-03, 2.38256040e-03,
       1.21748040e-03, -2.52009276e-03, -3.38382716e-03, -6.06826786e-03,
       -5.31126419e-03, -1.57083326e-03, 1.05357892e-03, 6.66610152e-03,
       7.11863721e-03, 1.56428281e-03, -5.13251638e-04, -3.82338627e-03,
       -7.09642703e-03, -5.11710765e-03, -2.17552437e-03, 1.57778704e-04,
       5.92663838e-03, 3.97268869e-03, 1.36417057e-03, -3.87378706e-04,
       -3.84039292e-03, -4.55892086e-03, -1.68512948e-03, 1.19855438e-04,
       -2.48062331e-03, -3.06738308e-03, -1.69870339e-03,
       -9.78534576e-04, 5.30107645e-04, 9.31638526e-04, 7.17805757e-04,
       -4.01786482e-03, -8.05461779e-04, 1.26596878e-03, 4.50564269e-03,
       5.11069875e-03, 2.63075135e-03, 7.74126209e-04, -3.66685120e-03,
       -6.09354209e-03, -1.22493750e-03, 1.19857525e-03, -1.40586344e-03,
       -2.46505742e-03, 6.88649132e-04, 1.14321476e-03, 2.99650338e-03,
       5.78960811e-04, -1.32083741e-03, -5.53917140e-04, -2.77840765e-03,
       1.06442301e-03, -2.66742118e-05, 1.14833732e-04, -1.49666425e-03,
       -1.11689973e-04, -4.61404241e-04, -1.61637750e-03,
       -1.91119383e-03, -2.81781610e-03, -1.56578270e-03,
       -2.41022697e-03, -1.64169248e-03, -1.84677905e-04,
       -1.93610060e-04, -1.34815834e-03, -2.80215521e-03,
       -6.35550357e-04, -2.02841987e-03, 5.70727105e-04, -1.29794318e-03,
       8.00523208e-04, -2.21235561e-03, -6.73061993e-04, -4.17598465e-04,
       -7.47249112e-04, -1.90003344e-03, -1.78447540e-03, 7.07657775e-04,
       -9.19234357e-04, -3.97351832e-04, 1.45806174e-03, -1.51774875e-04,
       -1.21267862e-03, -3.15031712e-03, -4.38759988e-03,
       -3.76418070e-03, -2.66523130e-05, -2.18472583e-03, 1.92307762e-03,
       1.47138175e-03, -1.28804357e-04, -2.07124255e-03, -3.15569458e-03,
       -6.10526884e-03, -5.71416225e-03, -3.06661520e-03,
       -9.37938865e-04, 2.38459464e-03, 2.20749131e-03, -1.73327501e-03,
       -2.52409768e-03, -3.58357793e-03, -4.14929027e-03,
       -3.20890942e-03, -9.08497605e-05, 9.79760080e-05, 2.68089934e-03,
       4.07629181e-03, 2.04838603e-03, -1.75184454e-03, -3.14777880e-03,
       -6.43691048e-03, -5.21243177e-03, -2.73054861e-03,
       -7.67714635e-04, 4.61498229e-03, 2.21933448e-03, -1.30470097e-03,
       -4.20020660e-03, -5.12431189e-03, -4.49380279e-03,
       -3.29252379e-03, -1.91640365e-03, -2.50230264e-03,
       -3.68731038e-04, 9.73496062e-04, 8.18258268e-04, -1.65732927e-03,
       -3.22348089e-03, -5.18324459e-03, -5.14740543e-03,
       -5.24100009e-03, -3.63789359e-03, 2.79203360e-03, 3.79779347e-04,
       -1.49252429e-03, -3.93266929e-03, -4.62380657e-03,
       -5.35331247e-03, -3.75520741e-03, -1.53054227e-03,
       -3.46239982e-03, 4.58102906e-03, 1.17655180e-03, -6.69689907e-05,
       -3.30273132e-03, -5.26009733e-03, -4.53352137e-03,
       -5.59435971e-03, -5.71231497e-03, -3.52222496e-03, 4.32830025e-03,
       -6.01041713e-04, -1.83266134e-03, -6.01447746e-03,
       -6.39487524e-03, -4.35260125e-03, -5.83894970e-03,
       -4.67614271e-03, -1.90757378e-03, 4.18163836e-03, 7.91490427e-04,
       -1.62157114e-03, -4.40208800e-03, -4.04279586e-03,
       -6.89468207e-03, -7.24752946e-03, -4.35419707e-03,
       -1.43478543e-03, 5.83979720e-03, 2.12347554e-03, 9.09083872e-04,
       -5.25208935e-03, -6.31521549e-03, -4.59756656e-03,
       -6.49891095e-03, -6.23257225e-03, -3.98650393e-03, 4.32939176e-03,
       1.78546784e-03, -4.32934001e-04, -5.94438799e-03, -5.23828110e-03,
       -6.76798122e-03, -7.87220336e-03, -4.73138876e-03,
       -2.21630535e-03, 8.37936066e-03, 2.04619742e-03, 2.30379915e-03,
       -5.50214481e-03, -5.59983263e-03, -7.78483413e-03,
       -7.48810265e-03, -4.71073296e-03, -1.83694973e-03,
       -4.92643667e-05, 8.62092129e-04, -1.53373345e-03, -6.63379906e-03,
       -7.22002657e-03, -7.22816680e-03, -7.39852246e-03,
       -3.23209330e-03, 3.64943431e-03, 6.55092252e-03, -3.80072655e-04,
       -1.94163702e-03, -5.42397657e-03, -5.85300708e-03,
       -8.23293906e-03, -9.01844166e-03, -6.95179822e-03,
       -2.66730390e-03, 1.18355651e-03, 1.55004335e-03, 1.17508427e-03,
       -4.56929440e-03, -6.23233430e-03, -7.19439937e-03,
       -6.74899621e-03, -3.43085499e-03, 3.16824135e-03, 1.05103189e-02,
       2.10829545e-03, -6.42054249e-04, -3.64714046e-03, -5.51887602e-03,
       -6.03801291e-03, -6.86808350e-03, -3.71844950e-03, 9.27931862e-04,
       3.42332129e-03, -1.61943014e-03, -1.82928971e-03, -3.37800942e-03,
       -4.61313967e-03, -7.11127324e-03, -5.90474205e-03,
       -3.95056745e-03, -9.57241282e-04, 6.03493210e-03, 2.79288366e-03,
       1.10509817e-03, -3.87873058e-03, -6.40727347e-03, -7.48458132e-03,
       -6.45685196e-03, -2.92643276e-03, 3.11100273e-04, 5.75903943e-03,
       2.26395344e-03, -1.22712445e-04, -1.45453203e-03, -5.52561739e-03,
       -8.16313177e-03, -6.41471101e-03, -4.54789447e-03,
       -4.96457145e-03, 5.11015998e-03, 4.39446187e-03, 1.46490068e-03,
       -1.68412609e-03, -5.97114675e-03, -3.67636140e-03,
       -3.56990332e-03, -7.35544076e-04, 9.30952683e-06, 4.40881168e-03,
       1.11727824e-03, 2.90028867e-03, -2.22516851e-03, -3.89327505e-03,
       -4.43209289e-03, -4.08495404e-03, -4.03755670e-03,
       -4.42405930e-04, 1.94176298e-03, 1.36028090e-03, -2.38094316e-03,
       -2.38591386e-03, -3.19977500e-03, -4.84927697e-03,
       -3.74012464e-03, -2.02811812e-03, -3.43448482e-03, 3.78707633e-03,
       1.39803905e-03, 3.52581427e-03, 1.15287816e-03, -4.11402667e-03,
       -6.35337969e-03, -4.06305632e-03, -4.32087574e-03,
       -4.94796783e-03, -9.96952644e-04, -1.06429728e-03,
       -1.13431446e-03, -1.22551387e-03, -4.47036279e-03,
       -4.29356610e-03, -4.40634880e-03, -4.05522576e-03, 3.52988049e-04,
       -1.14221219e-03, -5.87806804e-04, -6.61425118e-04,
       -1.14927895e-03, -2.80384207e-03, -6.16868259e-03,
       -4.65644524e-03, -2.61100568e-03, 6.19490806e-04, 1.62048789e-03,
       1.66946871e-03, 6.00985251e-04, -2.41326541e-03, -4.26307367e-03,
       -5.01371222e-03, -3.62046808e-03, -2.12062965e-03,
       -2.58159614e-03, -1.43657695e-03, 1.50745537e-03, -2.38867057e-03,
       -2.63912394e-03, -4.94283950e-03, -5.94504690e-03,
       -2.68016360e-03, -3.93383065e-03, -4.88822255e-03,
       -1.75758556e-04, 3.79123981e-03, 1.11590407e-03, -3.80997942e-03,
       -5.72009571e-03, -5.86269330e-03, -3.13640852e-03,
       -1.96297304e-04, 4.67460632e-04, 1.53401936e-03, 1.78896869e-03,
       2.56483117e-03, 1.41662633e-04, -2.95479922e-03, -7.47508416e-03,
       -5.54740056e-03, -1.21634931e-03, -1.25201605e-03,
       -7.66423123e-04, -6.78894692e-04, 1.69367809e-03, -1.37803226e-03,
       -4.09383187e-03, -6.92434330e-03, -2.52148160e-03,
       -3.23555991e-03, -4.09780163e-03, -1.85674883e-03, 4.35518147e-03,
       2.88516097e-03, -1.47445279e-03, -6.11005956e-03, -8.59806687e-03,
       -5.20850485e-03, -3.70161189e-03, -4.99075837e-03,
       -4.36487095e-03, 5.22485760e-04, 3.03914747e-03, -2.04395107e-03,
       -6.50037918e-03, -5.83305536e-03, -5.22962259e-03,
       -4.93622967e-04, 6.25075831e-04, 1.50628109e-03, -4.45728016e-04,
       1.27481273e-03, -1.92444655e-03, -4.25664755e-03, -8.65808316e-03,
       -6.11585658e-03, -3.23957717e-03, -2.29782797e-03,
       -4.90223872e-04, 7.90816150e-04, 2.87330453e-03, -2.53086956e-03,
       -6.87310379e-03, -3.95007152e-03, -4.36986145e-03,
       -2.27690907e-03, -2.70699477e-03, -5.86716051e-04, 1.97257916e-03,
       2.91869882e-03, -2.15857383e-03, -3.72416177e-03, -5.81947761e-03,
       -4.84819757e-03, -2.50927173e-03, -2.39310972e-03,
       -2.41949339e-03, -1.54116610e-03, -2.06893496e-03,
       -5.15483366e-03, -7.85137154e-03, -6.64324779e-03,
       -5.47414646e-03, -2.14285706e-03, 1.70426967e-03, 1.27901509e-03,
       1.94400095e-03, 1.41558785e-03, -3.00434232e-03, -5.62811550e-03,
       -6.03213115e-03, -6.22798828e-03, -1.96269527e-03,
       -3.37636156e-04, -2.94932281e-04, -2.34482088e-03,
       -3.74032208e-03, -6.01845933e-03, -6.65668258e-03,
       -4.87194723e-03, -4.21098946e-03, 4.52192209e-04, 9.70147608e-04,
       9.02066357e-04, -1.57880934e-03, -3.48323165e-03, -4.63755010e-03,
       -5.35397604e-03, -3.86274955e-03, -3.60511383e-03,
       -9.21828265e-04, -8.71764671e-04, -2.25150376e-03,
       -6.58321800e-03, -6.92025525e-03, -6.12833304e-03,
       -4.82831476e-03, -2.27309880e-03, -3.77658405e-03,
       -4.81972733e-04, 9.95193142e-04, 7.73450313e-03, -8.11848557e-04,
       -2.82876217e-03, -6.01056963e-03, -4.07394441e-03,
       -6.52893586e-03, -3.72211076e-03, -2.51157023e-03,
       -1.51581282e-03, 1.57482980e-03, -9.32651514e-04, -7.08900252e-03,
       -8.38208199e-03, -7.22422078e-03, -2.98514543e-03,
       -4.12318017e-03, -6.13973360e-04, 1.76810485e-03, 2.58592097e-03,
       -5.26500214e-03, -4.87954170e-03, -6.23837067e-03,
       -3.73221445e-03, -6.65383926e-03, -5.04259299e-03,
       -2.57177697e-03, -2.21005222e-03, -1.11057516e-03,
       -5.45928208e-03, -7.91903399e-03, -7.90265948e-03,
       -7.87129719e-03, -7.53830140e-03, -5.62022300e-03,
       -1.04082155e-03, 1.02299650e-03, 2.04427750e-03, -5.69985528e-03,
       -8.07915907e-03, -6.92225806e-03, -6.38748752e-03,
       -8.41839425e-03, -6.22590445e-03, -1.30635046e-03, 1.65717583e-03,
       1.13868648e-02, 2.24767369e-03, -5.23710158e-03, -7.07842316e-03,
       -6.96845492e-03, -8.26539565e-03, -3.99924163e-03,
       -1.18527259e-03, -6.09391776e-04, -9.74633440e-04,
       -7.35854870e-03, -8.64275731e-03, -6.11495972e-03,
       -6.78408286e-03, -8.71474482e-03, -4.83433018e-03,
       -1.30465731e-03, 1.74470583e-03, 7.81295169e-03, -2.11268850e-03,
       -6.52136421e-03, -6.78900862e-03, -7.06407847e-03,
       -6.92714565e-03, -6.53938996e-03, -1.97137846e-03, 7.29677093e-04,
